tree
version=v4
num_class=1
num_tree_per_iteration=1
label_index=0
max_feature_idx=14
objective=binary sigmoid:1
feature_names=avg_monthly_inflow income_regularity savings_ratio merchant_diversity discretionary_spend_ratio emi_count atm_withdrawal_ratio p2p_transfer_ratio psy_time_discount psy_risk_tolerance psy_cooperation psy_numeracy psy_stress_response age dependents
feature_infos=[6000:173083.67788184562] [0.11311128523252301:0.98999999999999999] [-0.10000000000000001:0.57537225458430863] [1:27.328839978246325] [0.0030852896664239999:0.69999999999999996] [0:5] [0.0045607750918489004:0.69999999999999996] [0.0178346367436613:0.80000000000000004] [0.050000000000000003:0.97161564574505199] [0.050000000000000003:0.96328927747128446] [0.1199787734036845:0.98999999999999999] [0.050000000000000003:0.98999999999999999] [0.050000000000000003:0.97956994452667157] [21:65] [0:6]
tree_sizes=3369 3396 3407 3388 3409 3404 3416 3404 3402 3406 3401 3397 3407 3420 3413 3402 3419 3416 3416 3412 3403 3409 3387 3421 3409 3413 3420 3409 3418 3407 3428 3421 3417 3398 3408 3413 3424 3416 3443 3421 3425 3412 3410 3411

Tree=0
num_leaves=31
num_cat=0
split_feature=1 5 8 5 8 10 4 12 4 1 11 6 10 8 4 10 4 10 7 1 4 12 4 7 5 12 3 1 12 7
split_gain=89.2703 45.2453 28.1391 26.1935 24.6546 17.6094 16.0146 14.9228 13.2921 13.1487 12.7517 14.568 12.1082 11.5137 10.8932 10.683 10.0183 9.84359 8.71683 8.69979 8.1493 9.17973 12.8183 8.67989 7.96305 7.85825 8.09009 7.6948 7.50268 7.41228
threshold=0.69297926871389437 1.0000000180025095e-35 0.56667555449206375 1.0000000180025095e-35 0.61686827414978851 0.48401279778954948 0.15364596535335809 0.53645488924849716 0.38496949207133946 0.45046053820422577 0.38445545708391077 0.44055590439615355 0.75597046687665104 0.31792636130275609 0.51564865749370836 0.70345225839166081 0.49350682817710051 0.55065264276769754 0.28218680388441975 0.52885272299512576 0.17055883684488762 0.50596753580441833 0.51114655691700783 0.40848341006662398 1.5000000000000002 0.43492494949969068 8.7790262479177468 0.87718074784955047 0.68562241706641025 0.40682274419824233
decision_type=2 2 2 2 2 2 2 2 2 2 2 2 2 2 2 2 2 2 2 2 2 2 2 2 2 2 2 2 2 2
left_child=2 5 3 12 6 18 -3 14 19 -4 -8 27 16 -9 -7 -10 -1 28 -2 -5 -6 23 -23 -22 25 26 -19 -12 -11 -20
right_child=1 4 9 8 20 7 10 13 15 17 11 -13 -14 -15 -16 -17 -18 24 29 -21 21 22 -24 -25 -26 -27 -28 -29 -30 -31
leaf_value=-0.73931190392399193 -0.70984906543699777 -0.77645254108621786 -0.73137419021249217 -0.69188537321489707 -0.79823758089798047 -0.78476418862261843 -0.68116078084349374 -0.7609549494575919 -0.6258525258995421 -0.72137800223625637 -0.73889546804431716 -0.67890297192319826 -0.76524917766706346 -0.80767034737010113 -0.73268088145121579 -0.70420724530119028 -0.67596097848160119 -0.79055162303180804 -0.81360949663032522 -0.73321853192198139 -0.76811693520622371 -0.79196332957865601 -0.71765899036552772 -0.7091131758540663 -0.73599214747475317 -0.78119795732674913 -0.7321025946076597 -0.7716323421304605 -0.77902268623254944 -0.74767206862053037
leaf_weight=48.790273815393448 8.6738264560699481 34.044768840074539 37.514299422502518 18.648726880550385 35.128997147083282 108.85652202367783 9.3243634402751905 14.528659313917158 7.5895981490612057 20.383492171764377 61.36732217669487 8.2401351332664472 49.007119476795197 143.11813652515411 11.05912873148918 10.191746085882185 7.1559068262577048 8.6738264560699481 6.5053698420524624 40.116447359323502 16.046578943729404 42.501749634742737 6.7222155034542075 10.191746085882185 15.396041959524153 91.942560434341431 18.648726880550385 25.370942384004593 7.8064438104629508 12.360202699899672
leaf_count=225 40 157 173 86 162 502 43 67 35 94 283 38 226 660 51 47 33 40 30 185 74 196 31 47 71 424 86 117 36 57
internal_value=-0.763743 -0.776563 -0.745143 -0.730882 -0.760745 -0.78947 -0.746677 -0.793254 -0.708641 -0.758061 -0.736958 -0.742435 -0.747104 -0.803365 -0.779961 -0.670763 -0.731209 -0.764209 -0.751335 -0.720102 -0.778345 -0.769084 -0.781816 -0.745198 -0.769833 -0.774201 -0.750658 -0.748471 -0.737341 -0.770409
internal_weight=935.906 554.041 381.865 181.5 248.939 305.102 138.348 277.562 76.5465 200.365 104.303 94.9784 104.953 157.647 119.916 17.7813 55.9462 162.851 27.5394 58.7652 110.591 75.4623 49.224 26.2383 134.661 119.265 27.3226 86.7383 28.1899 18.8656
internal_count=4316 2555 1761 837 1148 1407 638 1280 353 924 481 438 484 727 553 82 258 751 127 271 510 348 227 121 621 550 126 400 130 87
is_linear=0
shrinkage=1


Tree=1
num_leaves=31
num_cat=0
split_feature=1 5 2 2 4 8 5 8 8 8 12 12 8 4 5 4 1 6 1 1 2 12 9 8 4 1 13 6 7 13
split_gain=80.4426 41.3974 40.5418 39.5336 23.9541 19.1427 17.7318 17.3467 14.8436 14.8286 14.4111 14.3325 14.1127 12.8858 12.367 11.8049 12.7827 11.7073 12.0111 11.6897 11.3467 10.5491 10.4209 9.94564 9.40124 9.0941 8.9726 8.7872 11.563 8.78509
threshold=0.69297926871389437 1.0000000180025095e-35 0.27459289757134447 0.19809541617149642 0.52761949679152398 0.62143384300521665 1.0000000180025095e-35 0.63871704673023333 0.40538155811115439 0.50756598702338984 0.75964433459033276 0.43492494949969068 0.57089592388022681 0.488701544415517 1.5000000000000002 0.52761949679152398 0.43119240432031997 0.12690401456690839 0.84834210421654677 0.72938933195908462 0.29890018903719295 0.5179048756503748 0.28869974538244425 0.42345199562936076 0.21648218027879959 0.77568359142791066 39.500000000000007 0.13996434641195057 0.41098301974514828 49.500000000000007
decision_type=2 2 2 2 2 2 2 2 2 2 2 2 2 2 2 2 2 2 2 2 2 2 2 2 2 2 2 2 2 2
left_child=2 11 6 5 8 14 10 15 24 -4 13 20 -13 29 17 16 -8 -3 -19 -7 22 -18 -2 -20 -5 -21 27 -9 -29 -1
right_child=1 3 9 4 -6 19 7 26 -10 -11 -12 12 -14 -15 -16 -17 21 18 23 25 -22 -23 -24 -25 -26 -27 -28 28 -30 -31
leaf_value=0.019594552557852394 -0.049092460195783963 -0.017187798222053453 0.014775344664837417 -0.021676190154569206 0.051647492793179886 -0.059371107255159011 0.10250169373057272 -0.036292282031582954 -0.035482214375693232 -0.029133533373178269 -0.018530574583458678 -0.018286386651403887 -0.042962838302072537 0.06702169740275464 0.072161612209293111 0.11501491582546204 0.06702819806391544 0.060056157401125868 0.055881057251742951 0.046991665076225507 -0.056774534064506665 0.025315210296068827 0.010888039204586959 -0.021285908838490113 0.051736592316275747 -0.0029086739776097467 0.055423670709733946 0.043985663940857261 -0.015129592015025825 -0.035173039274599083
leaf_weight=113.31294842064381 8.4016220867633802 12.411329016089438 29.823981434106827 8.6908868849277514 10.74092562496662 7.3350228220224372 9.3058214187622053 9.3705099970102292 84.830182462930679 54.120094999670982 27.347794815897942 112.08272568881512 119.94768677651882 13.816359519958494 19.194347754120827 7.1040788590908042 23.339311197400093 25.377623707056046 6.5529883950948742 11.660906195640562 9.27093358337879 43.234030395746231 52.441310375928879 11.50889155268669 8.7531619518995267 42.075448244810104 12.001210764050482 19.145227283239365 14.565203815698622 7.8279928117990485
leaf_count=521 39 57 136 40 49 34 42 43 392 249 126 522 560 63 88 32 106 116 30 54 43 197 243 53 40 195 55 88 67 36
internal_value=-0.000373568 -0.0126149 0.0171859 0.00247424 -0.0193845 0.0206232 0.025771 0.0389426 -0.0268444 -0.0135334 0.0145664 -0.0250566 -0.0310428 0.0212732 0.0375383 0.053382 0.0476117 0.0256392 0.0378755 -0.000162217 -0.00524613 0.039939 0.00260551 0.00671086 0.0151612 0.00791981 0.0171893 0.00653822 0.0184438 0.0160555
internal_weight=935.591 551.276 384.315 249.132 113.015 136.117 300.37 138.065 102.274 83.9441 162.305 302.144 232.03 134.957 75.0452 82.9832 75.8792 55.8508 43.4395 61.0714 70.1139 66.5733 60.8429 18.0619 17.444 53.7364 55.0822 43.0809 33.7104 121.141
internal_count=4316 2555 1761 1148 521 627 1376 630 472 385 746 1407 1082 620 344 377 345 256 199 283 325 303 282 83 80 249 253 198 155 557
is_linear=0
shrinkage=0.05


Tree=2
num_leaves=31
num_cat=0
split_feature=1 5 2 2 4 5 8 10 8 8 8 12 10 0 2 9 1 1 3 5 6 8 0 12 4 4 12 1 2 1
split_gain=72.5267 37.8475 36.4116 35.6413 21.5887 17.3333 16.9216 16.1778 14.5384 14.3839 13.632 13.4156 12.8784 12.6392 12.275 10.9551 12.9122 10.7707 10.7547 11.9642 12.7015 10.7019 10.3152 12.6601 9.72223 9.60816 9.42859 9.06374 8.93516 8.59845
threshold=0.69297926871389437 1.0000000180025095e-35 0.27902031479458528 0.19809541617149642 0.52761949679152398 1.0000000180025095e-35 0.62143384300521665 0.48401279778954948 0.56667555449206375 0.50756598702338984 0.40538155811115439 0.53645488924849716 0.56994370734817468 19191.66350997597 0.079781460372268964 0.72133158921113139 0.49887515685092776 0.72938933195908462 15.292154721665046 1.5000000000000002 0.12690401456690839 0.53917241638855884 19056.484174449066 0.50177346263805567 0.39242454268687627 0.49716549027836376 0.56928503860074009 0.84834210421654677 0.23122445164021324 0.55022473431814911
decision_type=2 2 2 2 2 2 2 2 2 2 2 2 2 2 2 2 2 2 2 2 2 2 2 2 2 2 2 2 2 2
left_child=2 7 5 6 10 12 18 28 15 -4 -5 14 26 -14 -9 16 -7 -8 19 20 -3 -13 23 -10 -18 -16 -1 -22 -2 -25
right_child=1 3 9 4 -6 8 17 11 22 -11 -12 21 13 -15 25 -17 24 -19 -20 -21 27 -23 -24 29 -26 -27 -28 -29 -30 -31
leaf_value=0.070478495594818766 0.034686743272337894 -0.029534984745360201 0.014183436575862891 0.014317790559637725 0.048190109064102454 0.10844525086975339 -0.057732282100362298 0.017393568103001616 0.095732365690214913 -0.030522523155414379 -0.03416997376013018 -0.021796024467910565 -0.016659264635685404 0.016488922975790517 -0.028658455106646448 -0.0043431381822227558 0.035689722949044503 0.0074980697886919568 0.093735412847954086 0.064337095215158097 0.051026783327674699 -0.048602248577664556 0.0096231219936209686 0.059455851602967638 0.089351528308429198 0.022169780799118965 0.017042099361442124 0.0026799285064607187 -0.024234074498611646 -0.009784839423113284
leaf_weight=14.812952831387518 17.126220077276233 11.463092699646948 28.211591809988022 17.53128556907177 10.930822983384131 11.852309256792067 7.1702822893857947 23.345196947455406 9.0853404998779315 49.670116066932678 83.712435781955719 63.577063411474228 42.080002516508102 90.82486093044281 84.586566507816315 6.9719182699918738 32.487309232354164 53.889187172055244 7.1093705743551245 17.881202548742294 22.545983329415321 89.856799110770226 52.481830477714539 8.5889697223901766 11.403393670916556 10.44575698673725 18.645753636956215 17.006558462977409 10.306533604860304 9.3807565420865995
leaf_count=67 79 53 128 80 49 52 34 109 41 231 392 299 193 416 396 31 146 249 32 80 101 428 239 39 50 48 85 78 48 43
internal_value=-0.000367862 -0.0120577 0.0162214 0.00233394 -0.0185665 0.0239309 0.0194388 -0.0240445 0.0367454 -0.0143284 -0.0257739 -0.0277378 0.0129736 0.00599363 -0.0150914 0.0547465 0.0621369 -0.000162004 0.0351851 0.0291434 0.0168078 -0.0374948 0.0225515 0.0476301 0.0496318 -0.0230715 0.0406996 0.0302389 0.0125501 0.0233101
internal_weight=934.981 548.484 386.497 249.24 112.175 308.615 137.066 299.244 142.252 77.8817 101.244 271.811 166.364 132.905 118.378 62.7149 55.743 61.0595 76.0062 68.8968 51.0156 153.434 79.5369 27.0551 43.8907 95.0323 33.4587 39.5525 27.4328 17.9697
internal_count=4316 2555 1761 1148 521 1402 627 1407 641 359 472 1280 761 609 553 279 248 283 344 312 232 727 362 123 196 444 152 179 127 82
is_linear=0
shrinkage=0.05


Tree=3
num_leaves=31
num_cat=0
split_feature=1 5 2 2 4 5 8 10 8 8 8 10 0 4 1 1 8 4 3 5 6 4 10 8 1 2 1 13 0 11
split_gain=65.4351 34.6105 32.5843 32.1569 19.48 15.2871 14.9999 14.8325 13.1385 13.0985 12.527 11.3846 11.3844 10.2953 10.8236 9.9334 9.6768 9.91969 9.21909 10.4205 11.4028 8.31156 8.2165 9.46001 8.02816 7.99808 7.95938 7.77128 8.29433 7.75528
threshold=0.69297926871389437 1.0000000180025095e-35 0.27902031479458528 0.19809541617149642 0.52761949679152398 1.0000000180025095e-35 0.62143384300521665 0.48401279778954948 0.50756598702338984 0.63871704673023333 0.40538155811115439 0.56994370734817468 19191.66350997597 0.54121964784440613 0.43119240432031997 0.72938933195908462 0.36289573314174045 0.51564865749370836 15.292154721665046 1.5000000000000002 0.12690401456690839 0.21648218027879959 0.5903270909751418 0.37691497519904743 0.77568359142791066 0.23122445164021324 0.84834210421654677 24.500000000000004 16589.108318879604 0.64229846919392053
decision_type=2 2 2 2 2 2 2 2 2 2 2 2 2 2 2 2 2 2 2 2 2 2 2 2 2 2 2 2 2 2
left_child=2 7 5 6 10 11 18 25 -4 13 21 -1 -13 14 -7 -8 29 -18 19 20 -3 -5 -16 -24 -17 -2 -22 -11 -29 -9
right_child=1 3 8 4 -6 9 15 16 -10 27 -12 12 -14 -15 22 24 17 -19 -20 -21 26 -23 23 -25 -26 -27 -28 28 -30 -31
leaf_value=0.038129854673420012 0.032536979783068604 -0.028377558492410401 0.013407632203385107 -0.021365770517431722 0.045067980862671414 0.089851567058191278 -0.056184735989105172 -0.032322572085208667 -0.029343767291203457 -0.018730587804531691 -0.032906862617143824 -0.015924206584865902 0.015571507032117675 0.10181644970713895 0.068395778662966963 0.043388218414045075 -0.033262366952077592 0.0017575264186014288 0.086416276859899138 0.059878730981185561 0.047681213730907474 0.047327136420959856 0.064043436766445458 0.014557913165661331 -0.003133034388691289 -0.023240990135371696 0.0025434448778087829 0.060099888895992305 0.011943816328417836 0.020360380195104125
leaf_weight=33.910763442516327 17.339180320501331 11.337362408637999 28.348174214363098 8.6676976829767245 11.099124312400816 10.030784443020819 7.0036461949348441 11.28195306658745 49.096969917416573 12.68328921496868 82.607957154512405 41.827864542603493 91.353121101856232 7.7059372663497916 14.092262417078016 11.889887407422064 216.87279917299747 22.30058915913105 7.3201161324977866 18.242132663726807 22.911658078432083 8.95088082551956 12.44699105620384 43.097334668040276 42.14668895304203 10.212039515376089 17.022774115204811 12.523068904876707 31.2664535343647 18.343063965439796
leaf_count=152 79 53 128 40 49 43 34 53 231 58 392 193 416 33 62 54 1036 105 32 80 101 40 55 192 195 48 78 56 142 86
internal_value=-0.00036161 -0.0115285 0.0153241 0.00220517 -0.0177832 0.0225519 0.0183446 -0.023077 -0.013695 0.0345007 -0.0247434 0.0122654 0.00567972 0.0466307 0.0412928 -0.000158322 -0.0266583 -0.0299971 0.0330442 0.0274239 0.0158767 0.0135327 0.0342982 0.0256472 0.00710323 0.0118625 0.0284404 0.0157334 0.0257156 0.000297384
internal_weight=933.933 545.55 388.383 249.2 111.326 310.938 137.874 296.35 77.4451 143.846 100.227 167.092 133.181 87.3733 79.6674 61.0402 268.798 239.173 76.834 69.5139 51.2718 17.6186 69.6366 55.5443 54.0366 27.5512 39.9344 56.4728 43.7895 29.625
internal_count=4316 2555 1761 1148 521 1402 627 1407 359 641 472 761 609 385 352 283 1280 1141 344 312 232 80 309 247 249 127 179 256 198 139
is_linear=0
shrinkage=0.05


Tree=4
num_leaves=31
num_cat=0
split_feature=1 5 2 2 4 12 2 1 10 8 4 8 12 8 8 6 2 1 4 8 1 11 11 0 5 6 1 8 11 7
split_gain=59.0743 31.6305 29.3979 29.0402 17.5984 14.9864 15.907 14.043 13.9038 13.3354 12.2379 11.5259 11.3829 11.2075 10.9025 10.4858 9.55924 9.16728 8.44654 8.43157 8.51174 8.11229 8.93991 10.2947 8.03278 8.04549 8.07451 8.65574 8.03154 8.8376
threshold=0.69297926871389437 1.0000000180025095e-35 0.27459289757134447 0.19809541617149642 0.52761949679152398 0.56928503860074009 0.065116544425508169 0.42631836581803234 0.56247735825774603 0.62143384300521665 0.13521304926065089 0.34965522474224547 0.53645488924849716 0.50756598702338984 0.31792636130275609 0.18445057599059342 0.29890018903719295 0.72938933195908462 0.51564865749370836 0.59359463178983563 0.53619819807553648 0.86810132728265577 0.60160184274142292 24768.414323338253 1.5000000000000002 0.12690401456690839 0.84834210421654677 0.42345199562936076 0.78962133685045799 0.28218680388441975
decision_type=2 2 2 2 2 2 2 2 2 2 2 2 2 2 2 2 2 2 2 2 2 2 2 2 2 2 2 2 2 2
left_child=2 8 5 9 11 10 19 -8 21 24 -1 -5 16 -4 -14 -9 18 -11 -10 20 -7 22 23 -2 25 -3 -27 -28 29 -12
right_child=1 3 13 4 -6 6 7 15 12 17 28 -13 14 -15 -16 -17 -18 -19 -20 -21 -22 -23 -24 -25 -26 26 27 -29 -30 -31
leaf_value=0.0037689543936627132 0.065766166992648423 -0.014661724620824854 0.012256301608289619 0.026043439324293673 0.042232234960093401 0.10795812310111684 0.044700897148340517 -0.0240165226422537 -0.013401648106884795 -0.054717306515368151 0.074169692298935941 -0.029591579685311037 0.006443947960794217 -0.025939321932338961 -0.041209033380208787 0.0080015436299492922 -0.051196182797149763 0.0067288227528199728 0.039395891597260473 0.015586076217668081 0.036589755965811009 0.044727437835985664 -0.026057018595750638 -0.013636420779004624 0.057991806649190403 0.04868581908598061 0.050541902921852545 -0.020899258188088115 0.018520016292522212 0.038386726838810468
leaf_weight=27.820134446024895 7.2368835210800198 12.136460080742834 30.292233645915985 10.399483203887938 11.248158618807791 7.2760143578052547 18.080210343003273 38.418198809027672 80.904497310519218 6.8361772596836081 24.188945651054382 88.804648399353027 13.285903990268705 52.473562121391296 124.28756760060787 76.468541711568832 15.331011474132536 54.162244781851768 8.3576917350292188 14.974361315369604 9.8113348633050901 8.9549931883811933 25.808901652693748 9.3640605807304365 20.437396094202995 26.764269977807999 6.7270433157682445 11.467171385884283 29.990762785077095 60.197004422545433
leaf_count=125 34 57 136 47 49 32 80 174 385 34 107 425 62 249 607 345 74 249 38 68 44 42 121 44 88 116 30 53 133 268
internal_value=-0.000354056 -0.0110241 0.0144889 0.00208463 -0.017039 0.0216142 0.0113634 0.00374075 -0.0221433 0.0173321 0.0335108 -0.0237594 -0.027155 -0.0119597 -0.036607 -0.00270532 -0.0147226 -0.00015753 -0.00845817 0.0429762 0.0669793 0.00148508 -0.00764571 0.0209777 0.0310921 0.0214632 0.0312151 0.00551506 0.040745 0.0486438
internal_weight=932.506 542.515 389.991 248.983 110.452 307.226 165.029 132.967 293.532 138.531 142.197 99.2041 242.167 82.7658 137.573 114.887 104.593 60.9984 89.2622 32.0617 17.0873 51.3648 42.4098 16.6009 77.5323 57.0949 44.9585 18.1942 114.377 84.386
internal_count=4316 2555 1761 1148 521 1376 743 599 1407 627 633 472 1166 385 669 519 497 283 423 144 76 241 199 78 344 256 199 83 508 375
is_linear=0
shrinkage=0.05


Tree=5
num_leaves=31
num_cat=0
split_feature=2 1 5 8 12 4 10 1 4 8 11 5 0 4 10 1 11 2 9 0 11 4 11 14 7 12 0 1 8 1
split_gain=51.3703 34.7209 31.4414 25.869 22.5891 17.7255 17.0367 16.9934 15.3221 15.9128 14.0708 13.5166 13.3698 11.6619 10.5049 10.4462 9.44212 9.2717 10.5179 11.0711 8.97876 8.55376 8.44949 8.35842 8.36671 8.28427 8.1228 7.98967 7.93789 8.29888
threshold=0.19809541617149642 0.65730693838308807 1.5000000000000002 0.34371732719366316 0.49577929277113714 0.17055883684488762 0.57227417133808489 0.82483307937293415 0.13521304926065089 0.59849178136729642 0.86810132728265577 1.0000000180025095e-35 14241.428517889175 0.59162191775271522 0.84134994686381737 0.52885272299512576 0.83533843615096404 0.081548315596744067 0.67197807988020897 20498.770181643715 0.59736376136077507 0.54121964784440613 0.66693837262234412 1.5000000000000002 0.36377936480947914 0.75964433459033276 44546.944814332011 0.83494885861709356 0.69062488402337652 0.7334889785361729
decision_type=2 2 2 2 2 2 2 2 2 2 2 2 2 2 2 2 2 2 2 2 2 2 2 2 2 2 2 2 2 2
left_child=1 8 3 16 5 -3 -5 -4 15 12 11 21 -10 -8 26 -1 20 18 19 -7 -2 -6 -21 24 -12 -14 -11 -13 29 -19
right_child=2 4 7 6 10 17 13 -9 9 14 23 27 25 -15 -16 -17 -18 28 -20 22 -22 -23 -24 -25 -26 -27 -28 -29 -30 -31
leaf_value=0.029652786785355309 -0.0067970275062074611 -0.014968897459960197 0.04055710278778233 -3.100897762887364e-05 -0.030369351163991028 0.10932767785272407 -0.031014475496420082 -0.024287816831031435 0.0028213337126720482 0.034003417095881922 0.037626803704174726 0.013001774920643975 0.064195818840685578 0.022376380246943776 -0.024448253001406382 -0.026255112372530073 -0.028771122727486061 0.069812249690435521 -0.0022009749754348588 0.078222359770259833 0.051997877919801531 0.026812264421843503 0.0035973319139674161 0.059269810743590015 -0.030108810340131673 0.014886972158882917 -0.024347594201475611 -0.017788212279831999 -0.013441155807306305 0.016324636765472918
leaf_weight=14.616931304335592 9.5018363893032092 29.220752611756325 37.862048774957657 64.289986446499825 92.583866000175476 9.4943447560071998 246.93178766965866 13.780799031257628 13.261583447456358 44.220826640725136 9.0056438446044975 52.293803408741951 62.235541954636574 10.66954383254051 12.843972831964491 19.503413870930672 7.672590345144271 9.5837467759847623 7.0679868161678305 7.5011586099863035 20.509458407759666 7.0372016578912726 7.6734529137611389 10.538950502872465 9.2328010052442533 9.8688796460628492 6.8939612954854956 35.286167442798615 14.962424635887144 29.805167198181152
leaf_count=65 43 136 174 300 448 43 1178 66 59 198 42 235 272 48 58 88 35 43 33 34 93 33 35 49 43 44 31 161 69 137
internal_value=-5.22116e-05 0.0104741 -0.0132283 -0.0184679 0.000810835 0.0186794 -0.0230566 0.0232534 0.0279253 0.0348327 -0.00872906 -0.0137328 0.0489609 -0.0288031 0.0159758 -0.00230454 0.0207281 0.0301006 0.051574 0.0669812 0.0333829 -0.0263301 0.0404862 0.023821 0.00333718 0.057447 0.0261335 0.00059642 0.0175618 0.0293387
internal_weight=925.951 514.733 411.218 359.575 331.287 115.309 321.891 51.6428 183.445 149.325 215.978 187.201 85.366 257.601 63.9588 34.1203 37.6839 86.0883 31.7369 24.669 30.0113 99.6211 15.1746 28.7774 18.2384 72.1044 51.1148 87.58 54.3513 39.3889
internal_count=4293 2356 1937 1697 1541 530 1526 240 815 662 1011 877 375 1226 287 153 171 394 145 112 136 481 69 134 85 316 229 396 249 180
is_linear=0
shrinkage=0.05


Tree=6
num_leaves=31
num_cat=0
split_feature=2 1 5 8 12 4 1 10 4 8 8 10 0 4 6 1 10 2 5 6 8 8 8 10 5 4 1 0 1 12
split_gain=46.4513 30.98 28.4854 23.6242 20.3154 15.8137 15.1292 13.9969 13.5847 13.9764 12.258 11.8154 11.7037 10.3723 10.0867 9.47262 9.42846 8.3139 8.29674 14.7582 12.492 8.16832 8.16419 7.46789 9.17489 9.32863 7.28296 7.24788 7.43787 7.20383
threshold=0.19809541617149642 0.65730693838308807 1.5000000000000002 0.3858435320117769 0.49577929277113714 0.17055883684488762 0.82483307937293415 0.55924903246845992 0.13521304926065089 0.59849178136729642 0.50284415437594976 0.79143285819059528 14241.428517889175 0.59162191775271522 0.35315064966273729 0.53619819807553648 0.84134994686381737 0.26641755813324508 1.0000000180025095e-35 0.40185436494878218 0.66974700863408576 0.55770067910320542 0.67715062657078273 0.41282247140383393 1.0000000180025095e-35 0.52019671526576128 0.48502499283556216 44546.944814332011 0.46981740815282214 0.75964433459033276
decision_type=2 2 2 2 2 2 2 2 2 2 2 2 2 2 2 2 2 2 2 2 2 2 2 2 2 2 2 2 2 2
left_child=1 8 3 -2 5 -3 -4 17 15 12 11 14 -10 26 -6 -1 27 21 19 -7 -20 -5 -23 -12 25 -25 -9 28 -11 -14
right_child=2 4 6 7 10 18 -8 13 9 16 23 -13 29 -15 -16 -17 -18 -19 20 -21 -22 22 -24 24 -26 -27 -28 -29 -30 -31
leaf_value=0.025705578801080181 0.012230130989808437 -0.014302025539358243 0.037986899285675571 0.056809634180974705 0.0089049504462255392 0.0010833546862727445 -0.023308272565152399 -0.003757303798828339 0.0026778525431887194 0.06295373364196373 0.031557748448722757 -0.019862753651056685 0.059911260810159461 0.020774304711338662 0.060506249147767033 -0.02710140978994869 -0.023424325173974275 -0.018627852780729953 0.064909690106697046 0.081301196557526545 0.0086160161273659049 -0.036784988220542138 0.033555984376641201 -0.038251492206232689 -0.0057574210642187956 0.020441094502146064 -0.03342113082740971 -0.023325737973221593 0.018531707136598918 0.014075771227873853
leaf_weight=16.071483924984932 55.687584176659584 29.058332890272141 38.388475835323334 9.5446489155292529 36.041005775332451 37.80983529984951 13.645465761423109 22.930494651198387 13.273231297731398 13.501208469271658 7.5111339986324301 24.877953350543976 63.322442978620529 10.285124167799948 12.845896929502485 18.007886797189713 12.737897098064421 29.968275293707848 26.730446010828018 6.7585366517305365 15.609934866428373 8.1776415556669253 8.3241317868232709 63.448571279644966 62.81480897963047 7.5786980241537085 211.91878822445869 6.8376378417015067 31.196110621094704 9.9145413935184461
leaf_count=71 253 136 174 44 166 176 66 106 59 59 34 115 272 46 58 82 58 142 116 31 71 38 38 314 288 36 1030 31 139 44
internal_value=-5.99224e-05 0.00991549 -0.0126477 -0.0176874 0.000760406 0.0176292 0.0219128 -0.0232196 0.0263121 0.0327558 -0.00833332 0.00818894 0.045877 -0.0283724 0.0224641 -0.00219817 0.015095 -0.000669585 0.0283055 0.0132479 0.0441555 0.0199927 -0.00130229 -0.0169554 -0.0196779 -0.0319889 -0.0305248 0.0246158 0.0319498 0.0537062
internal_weight=924.818 515.948 408.871 356.837 331.085 115.967 52.0339 301.149 184.862 150.783 215.118 73.7649 86.5102 245.134 48.8869 34.0794 64.2729 56.0147 86.9088 44.5684 42.3404 26.0464 16.5018 141.353 133.842 71.0273 234.849 51.535 44.6973 73.237
internal_count=4293 2356 1937 1697 1541 530 240 1444 815 662 1011 339 375 1182 224 153 287 262 394 207 187 120 76 672 638 350 1136 229 198 316
is_linear=0
shrinkage=0.05


Tree=7
num_leaves=31
num_cat=0
split_feature=2 1 5 8 12 10 1 11 6 12 12 2 14 10 6 1 8 0 9 0 10 2 6 9 3 10 14 7 14 1
split_gain=42.0307 27.6886 25.8211 21.8816 18.2932 14.5657 13.5835 12.61 14.6339 16.0287 11.6883 14.1472 10.0789 9.34716 9.00794 8.28306 8.07594 9.70695 9.40731 9.25981 7.95889 7.95468 11.5635 8.5873 7.594 7.35742 7.33864 7.61383 7.17478 7.01735
threshold=0.19809541617149642 0.65730693838308807 1.5000000000000002 0.34371732719366316 0.49577929277113714 0.57227417133808489 0.86809059065372285 0.86810132728265577 0.35315064966273729 0.57296429478813538 0.77006898336715357 0.065116544425508169 1.0000000180025095e-35 0.92532521126164602 0.11536700452565991 0.48502499283556216 0.63673819773624241 14241.428517889175 0.58223982886102144 23666.95173928728 0.82272518120509142 0.081548315596744067 0.32908863648511238 0.66693210504647082 9.2442631793977679 0.78276396847143614 1.5000000000000002 0.36377936480947914 1.5000000000000002 0.83494885861709356
decision_type=2 2 2 2 2 2 2 2 2 2 2 2 2 2 2 2 2 2 2 2 2 2 2 2 2 2 2 2 2 2
left_child=1 10 3 14 21 -5 24 8 13 -10 16 -12 -11 29 -2 20 17 -1 19 -18 -7 23 -23 -3 -4 -20 27 -9 -16 -6
right_child=2 4 6 5 7 15 -8 26 9 12 11 -13 -14 -15 28 -17 18 -19 25 -21 -22 22 -24 -25 -26 -27 -28 -29 -30 -31
leaf_value=0.0020025818476769679 -0.02940676976067564 0.047058116312236317 0.054947119122718657 -5.2145507413713841e-06 -0.0077610560053568136 -0.016335788068934088 -0.036082153366830003 0.035773265452920873 -0.045680375593527334 -0.015473280123380435 0.054121355276892338 -0.03046908462190602 0.047761159562921873 -0.070704444189374646 0.0052287256706585105 -0.029626781087795779 0.027277973393153094 0.04436310814116512 0.063931664561416343 -0.023355281747737155 0.048350925715410949 -0.0050126898742366907 0.039461621795472683 -0.0054751150015705406 0.013040521305981809 -0.00054309339410309231 0.055538010586477796 -0.028889132471653672 0.053923373582867862 -0.030950170048884458
leaf_weight=15.945679500699041 7.7102751135826102 31.546081826090813 19.824468463659286 64.230252355337143 81.982448473572731 17.503836125135425 8.7765479534864408 9.0958699285984093 8.8501822501420957 8.6805077046155947 6.8228299617767361 17.937327310442924 22.99297197163105 8.6109688431024534 14.23351062834263 227.72461372613907 16.400171130895615 89.04285517334938 13.129311308264734 20.09185765683651 6.5287400335073462 54.681268826127052 19.946949437260628 10.32522991299629 23.775570631027222 6.6739027351140967 10.730496972799299 9.1137067228555662 16.145209223031998 54.188710764050484
leaf_count=71 35 141 89 300 386 81 43 42 41 41 30 81 107 42 64 1115 73 382 58 90 30 251 90 48 108 30 49 43 72 260
internal_value=-6.6361e-05 0.00939478 -0.0120958 -0.0169428 0.000714688 -0.0212583 0.0206708 -0.0079564 -0.0127502 0.0138086 0.0248261 -0.00715961 0.030431 -0.0201838 0.0188583 -0.0266805 0.0297365 0.0379294 0.0144571 -0.00059979 0.00123714 0.0166611 0.00687459 0.0341037 0.032095 0.042203 0.0227384 0.0034104 0.0311082 -0.0169891
internal_weight=923.242 516.789 406.453 354.076 330.745 315.987 52.3766 214.246 185.306 40.5237 186.044 24.7602 31.6735 144.782 38.089 251.757 161.284 104.989 56.2952 36.492 24.0326 116.5 74.6282 41.8713 43.6 19.8032 28.9401 18.2096 30.3787 136.171
internal_count=4293 2356 1937 1697 1541 1526 240 1011 877 189 815 111 148 688 171 1226 704 453 251 163 111 530 341 189 197 88 134 85 136 646
is_linear=0
shrinkage=0.05


Tree=8
num_leaves=31
num_cat=0
split_feature=2 1 5 8 12 4 10 12 1 4 4 8 12 4 8 2 8 10 7 3 4 4 8 1 11 9 6 4 1 11
split_gain=38.0246 24.7778 23.4039 20.7675 17.4814 15.0019 13.4011 12.9933 12.3856 12.3062 11.4307 10.6389 10.3656 9.65528 11.2538 9.24082 9.16359 13.1487 9.83127 9.11837 12.6867 9.05022 15.6425 8.44607 8.2717 8.53694 7.94625 9.16405 7.74922 7.9904
threshold=0.19809541617149642 0.64617465275045349 1.5000000000000002 0.56467007177501138 0.49577929277113714 0.17055883684488762 0.67046530512826086 0.77006898336715357 0.83494885861709356 0.13521304926065089 0.21237750161729793 0.57089592388022681 0.56352136666997132 0.47424210847492992 0.68681663207526911 0.070966937015263312 0.34371732719366316 0.51851647302469794 0.39293107892867268 11.238073339831674 0.327040061036804 0.48559543960449741 0.65492218578283234 0.52459531410945437 0.83533843615096404 0.50102347857202456 0.1744229177253491 0.53420657245712722 0.56402931538912982 0.62478626534668591
decision_type=2 2 2 2 2 2 2 2 2 2 2 2 2 2 2 2 2 2 2 2 2 2 2 2 2 2 2 2 2 2
left_child=1 7 3 16 5 -3 11 9 -4 23 -11 12 -6 28 -15 -9 24 18 -18 -13 -21 -12 -23 -1 25 -2 -8 -28 29 -5
right_child=2 4 8 13 6 -7 26 15 -10 10 21 19 -14 14 -16 -17 17 -19 -20 20 -22 22 -24 -25 -26 -27 27 -29 -30 -31
leaf_value=0.031419487227349947 0.056428590317451469 -0.014719691988746586 0.032795672181286865 -0.044422823657993285 -0.026449908369815974 0.026454986017658961 -0.032930472735019596 0.036748126890288245 -0.024739741674579024 0.062815213464102168 0.019354214615487836 -0.026007068441941311 0.040607571163560563 -0.035499295029577105 0.033794700840732821 -0.032736498328818101 0.061720422276668789 -0.016381335307235356 -0.010570146290510049 -0.017271863123361368 0.067540251353484404 0.089364822858711737 -0.0019297756803764816 -0.022347534521417158 -0.028671832030287805 0.0036320795842770984 -0.012613367144992706 0.046990462636001408 -0.037980014319191659 0.0092206448587815234
leaf_weight=12.692083090543749 14.967972978949549 29.267094805836678 40.516949072480202 10.765716493129732 7.0871279686689368 90.614876821637154 49.396513417363167 6.9047284126281765 12.16131319105625 30.467314288020134 73.310828030109406 27.318504124879837 30.841857522726059 10.891631111502649 12.681663900613783 15.58544412255287 10.267761617898943 113.74674759805202 8.6781161278486234 10.061091333627703 7.8493225425481787 13.212071821093561 7.275806412100791 17.205369234085083 7.6589711606502524 15.674418166279791 81.601517528295517 7.0021707266569129 126.54934445023537 19.544034481048584
leaf_count=55 66 137 180 51 32 405 239 30 60 131 317 131 139 52 60 71 47 549 40 48 37 55 32 78 35 70 387 32 635 92
internal_value=-7.2012e-05 0.0089001 -0.0115661 -0.0162248 0.0010274 0.0164029 -0.00730712 0.0240988 0.019513 0.0292781 0.0362073 0.00854827 0.0280777 -0.0280573 0.00177861 -0.011404 -0.00373912 -0.00995777 0.0286079 -0.00782912 0.0198974 0.0275646 0.0569436 0.000477671 0.017805 0.0294217 -0.0168615 -0.007903 -0.0325412 -0.00983297
internal_weight=921.798 517.694 404.105 351.426 341.04 119.882 221.158 176.654 52.6783 154.163 124.266 83.1579 37.929 180.432 23.5733 22.4902 170.994 132.693 18.9459 45.2289 17.9104 93.7987 20.4879 29.8975 38.3014 30.6424 138 88.6037 156.859 30.3098
internal_count=4293 2356 1937 1697 1587 542 1045 769 240 668 535 387 171 890 112 101 807 636 87 216 85 404 87 133 171 136 658 419 778 143
is_linear=0
shrinkage=0.05


Tree=9
num_leaves=31
num_cat=0
split_feature=2 1 5 12 10 4 10 1 5 10 3 4 4 4 3 4 1 1 2 3 9 0 13 4 4 0 2 10 10 14
split_gain=34.4225 22.3331 21.228 14.2275 13.1525 11.4787 11.358 11.249 11.2147 10.5187 10.4837 12.1264 9.6472 9.25246 8.44845 7.99218 9.03841 7.87166 7.39601 9.94204 8.87213 7.02415 6.84449 6.51087 6.28622 6.25415 5.86946 12.4847 6.4271 5.80577
threshold=0.19809541617149642 0.69174051897847788 1.5000000000000002 0.48282310938351625 0.77514452986874527 0.12050565164929432 0.57227417133808489 0.67915549014760057 1.0000000180025095e-35 0.48874034142715178 14.105267051900828 0.38193033605473697 0.50582495827379736 0.33373692596023175 4.8604411785002544 0.14964465533925284 0.52885272299512576 0.66477244092090848 0.077961982980398567 10.699079566292665 0.67647041191847546 20386.345837603712 47.500000000000007 0.44544366674161012 0.14075553241869118 17579.955852507028 0.27658407734697893 0.88420687144168075 0.75597046687665104 1.5000000000000002
decision_type=2 2 2 2 2 2 2 2 2 2 2 2 2 2 2 2 2 2 2 2 2 2 2 2 2 2 2 2 2 2
left_child=1 4 6 5 15 -3 -2 -4 9 -5 11 -10 17 -9 -7 16 -1 26 20 -20 21 -16 -17 -13 29 -14 27 28 -8 -6
right_child=2 3 7 8 24 14 12 13 10 -11 -12 23 25 -15 18 22 -18 -19 19 -21 -22 -23 -24 -25 -26 -27 -28 -29 -30 -31
leaf_value=0.044457235931322031 0.0021422656527546871 -0.02544824514363573 0.048212265530557005 0.022526777981186508 -0.048487410621694232 -0.02270007374132231 0.0061402262480463252 -0.017212864855801761 -0.014749671896445746 -0.025917595547419733 0.044872701587064356 0.060062500999588431 0.047125720012787434 0.039827579948591534 0.10210688843592004 0.040886421524235501 -0.013551663174688786 -0.03013165619453638 0.038450848266495703 -0.0067235062990020763 -0.0012911588579447748 0.042028293344060198 -0.0031467035682550912 0.0055224309228646198 0.011742444627228531 -0.0064496735957423118 -0.025286296584234681 0.05971124127830623 -0.033404728081481191 0.012471258262699625
leaf_weight=10.457739844918253 72.041742891073227 15.124259054660795 19.836077988147736 12.813585847616194 9.3112390935421008 9.4967838972806913 24.343023747205734 22.769345343112946 58.339889287948608 89.263910457491875 13.496142342686651 9.4549526572227496 7.3789782971143749 10.336919128894804 7.6792875677347245 94.821744412183762 18.762239754199982 156.19408355653286 24.023896351456642 24.703825995326042 6.909073367714881 13.275998443365095 9.7308066487312299 12.989830508828161 70.979200348258018 20.807915046811104 42.772283181548119 7.4387693852186194 17.779012188315392 6.728518769145011
leaf_count=45 336 72 85 58 42 43 112 108 267 450 60 42 34 47 33 407 85 793 108 112 32 58 42 59 311 97 208 34 83 30
internal_value=-7.73094e-05 0.00843634 -0.0110636 -0.000503359 0.0204848 0.0147247 -0.0155419 0.0184372 -0.00835269 -0.0198365 0.00408076 -0.00273407 -0.0201459 0.000597132 0.0217824 0.0303273 0.00720954 -0.02329 0.0272978 0.0155485 0.0478445 0.0640447 0.0367882 0.0284976 0.00535406 0.0075757 -0.0117163 -5.1097e-06 -0.010551 -0.0229159
internal_weight=920.061 518.363 401.698 297.571 220.791 101.213 348.756 52.9423 196.358 102.077 94.2808 80.7847 276.714 33.1063 86.0889 133.773 29.22 248.527 76.5921 48.7277 27.8644 20.9553 104.553 22.4448 87.019 28.1869 92.3331 49.5608 42.122 16.0398
internal_count=4293 2356 1937 1394 962 458 1697 240 936 508 428 368 1361 155 386 579 130 1230 343 220 123 91 449 101 383 131 437 229 195 72
is_linear=0
shrinkage=0.05


Tree=10
num_leaves=31
num_cat=0
split_feature=5 8 1 2 10 12 1 4 12 2 8 10 12 4 2 0 2 4 8 0 9 4 1 9 4 12 2 3 9 4
split_gain=35.0679 20.564 17.7461 16.5933 15.8161 15.4709 15.395 13.9577 11.3838 10.4012 10.2387 9.80111 9.79471 9.74516 9.60288 9.21129 8.40925 8.09597 8.0461 7.79496 7.83842 7.68568 7.36628 7.35918 6.97289 7.39086 6.35451 6.31796 6.29088 6.20741
threshold=1.0000000180025095e-35 0.48906222511499037 0.69297926871389437 0.26491024131110691 0.48401279778954948 0.42727426996001755 0.56402931538912982 0.15364596535335809 0.7295168469914407 0.30450287766832723 0.43990812935954476 0.67279406150151322 0.50596753580441833 0.10130968699229066 0.15126768817486216 24006.689014315871 0.30213952888671236 0.26778699509183179 0.35476747040934281 44183.400965780318 0.26114316015207178 0.47746226169678502 0.69944195984989521 0.29863544473356468 0.41940087243428725 0.64413512094292746 0.25671121132257985 9.4472886258772935 0.33417959502305744 0.28245643879352972
decision_type=2 2 2 2 2 2 2 2 2 2 2 2 2 2 2 2 2 2 2 2 2 2 2 2 2 2 2 2 2 2
left_child=2 7 3 8 26 16 9 -2 21 15 23 17 13 -8 24 27 29 -9 -5 20 -15 -1 -19 -7 25 -13 -4 -3 -10 -6
right_child=1 6 4 18 5 10 12 11 28 -11 -12 14 -14 19 -16 -17 -18 22 -20 -21 -22 -23 -24 -25 -26 -27 -28 -29 -30 -31
leaf_value=0.01160449751475311 -0.0028754821483635579 0.082563557905941332 0.032918113997530182 0.027714314683764115 -0.0074098717917704116 0.041206874882893152 -0.040382560529963335 0.021404148597180116 0.023330660833299738 -0.027673042584993729 -0.034413462846518472 0.053922294114192984 -0.010496120997420711 0.071346190552995403 0.0075988770290016773 0.011504939040635877 -0.047675830727051616 0.10087883076566556 -0.030895348899002785 -0.022615286003441135 0.017241471816653083 0.048908835303545659 0.047821260139673472 -0.015663507318376423 0.082713018749078146 -0.012443145110467194 -0.022033639862509044 0.033456752741477767 -0.028247577161905815 0.027773859888645547
leaf_weight=114.34206369519234 31.304791122674942 11.254417687654497 20.266171485185627 6.7421271204948416 27.410093456506729 6.6530398577451697 8.1959673464298231 12.27329735457897 7.6517345607280722 7.9351226687431327 149.74449977278709 10.923851639032369 150.68752743303776 7.6678587347269049 39.050771251320839 24.261585026979446 7.6171521842479697 11.408177524805071 44.544443517923355 10.47316190600395 52.718462854623795 15.703361138701437 15.335526436567305 39.236727133393288 8.8798859566450101 6.8107880800962439 7.1053624898195258 15.668968498706816 25.998061329126358 23.102165386080742
leaf_count=507 141 48 91 30 132 32 40 53 35 38 773 46 713 34 176 106 40 47 219 48 241 67 67 192 37 30 34 67 119 107
internal_value=-0.000158625 0.0103847 -0.0091874 0.0016266 -0.0174568 -0.0213517 0.00283709 0.0264173 0.00940194 0.0255916 -0.0280813 0.0351771 -0.00301835 0.011235 0.023384 0.0338491 0.00129671 0.0550249 -0.0231905 0.0172054 0.0241117 0.0161091 0.0704543 -0.00741851 0.046545 0.0284354 0.0186532 0.0539842 -0.016519 0.00868168
internal_weight=920.967 424.85 496.117 214.982 281.135 253.764 288.863 135.987 163.695 59.1201 195.634 104.682 229.743 79.0555 65.6653 51.185 58.1294 39.017 51.2866 70.8595 60.3863 130.045 26.7437 45.8898 26.6145 17.7346 27.3715 26.9234 33.6498 50.5123
internal_count=4310 1932 2378 977 1401 1276 1335 597 728 259 997 456 1076 363 289 221 279 167 249 323 275 574 114 224 113 76 125 115 154 239
is_linear=0
shrinkage=0.05


Tree=11
num_leaves=31
num_cat=0
split_feature=5 2 1 10 1 8 6 8 12 0 4 2 0 2 12 8 11 4 2 2 7 7 0 4 7 0 6 2 3 4
split_gain=31.7147 19.4334 20.9178 16.6696 17.3003 14.7902 13.3019 9.47985 9.59046 9.38806 10.8591 9.27376 12.813 9.21964 10.0944 10.6994 9.69754 9.18271 11.2855 9.09591 9.84813 9.01875 8.57345 8.5702 8.36714 8.2487 7.81874 7.75702 8.24531 7.61139
threshold=1.0000000180025095e-35 0.38112083817757897 0.83494885861709356 0.57227417133808489 0.71020907210806716 0.48906222511499037 0.084060246638051464 0.44280132436887204 0.53269348544551531 34297.180778097878 0.27108103204281014 0.28522299794020828 25894.79034383161 0.24234149479166778 0.47399274373460137 0.77478087772838211 0.7987278108040804 0.54121964784440613 0.036572187095664906 0.20944351361882999 0.46571181573215731 0.4442968886533879 19461.646425113755 0.18777068834923782 0.25384102713719242 11877.896424477725 0.16727604816409844 0.04971529954873851 11.644332968131923 0.26230729718918339
decision_type=2 2 2 2 2 2 2 2 2 2 2 2 2 2 2 2 2 2 2 2 2 2 2 2 2 2 2 2 2 2
left_child=3 2 5 11 13 6 -2 -6 24 10 -4 12 25 14 16 26 27 18 22 20 -12 -8 -7 -23 -9 -1 -16 -5 29 -29
right_child=1 -3 9 4 7 17 21 8 -10 -11 19 -13 -14 -15 15 -17 -18 -19 -20 -21 -22 23 -24 -25 -26 -27 -28 28 -30 -31
leaf_value=-0.013381692933124868 -0.012427709266142884 -0.03984134477783835 -0.01611131229936015 0.08655184355521095 -0.0038498425157044618 0.076898171377313737 0.053414304620968869 0.013884930871826318 -0.039835361247670592 -0.031161387493976463 0.019737865435990556 -0.023540353023312643 -0.0051977612505886839 -0.018847440569754296 -0.021895495576622948 -0.055888991070834643 -0.01965443164727404 0.046330118517764023 0.003231018990962382 -0.011002040717535119 0.09147919521120812 -0.024010367772355767 0.015609360336553829 0.036435278063808835 -0.02521408436134194 0.045046954602961813 0.012001780410711115 0.010889296929088733 -0.01309396131119301 0.08329318347964175
leaf_weight=7.2475634664297095 12.978201970458029 18.80862121284008 38.976120293140411 6.9269228726625469 49.256063774228096 9.5039862841367739 56.859068259596825 18.26108056306839 89.684419766068459 29.273462653160095 16.169876709580425 17.027076572179794 35.384657114744186 57.258860468864441 24.327299311757088 8.9211311191320402 8.7572140395641309 16.98070901632309 162.97553272545338 13.298684686422346 6.7932881116867057 8.2473701685667056 14.278691142797468 20.292827889323235 54.580766797065735 36.269496604800224 56.57057398557663 6.8959772586822528 8.4485456794500333 7.663604199886322
leaf_count=33 58 91 186 30 240 41 243 89 481 140 73 83 161 282 111 42 39 74 746 65 30 36 63 86 271 161 254 31 37 33
internal_value=-0.000157929 0.00984621 0.0121445 -0.00878263 -0.0132968 0.0188145 0.0347351 -0.0230656 -0.0288892 -0.00713671 0.00221078 0.00992508 0.017147 -0.00216005 0.0052751 -0.00392237 0.0266258 0.0111271 0.00792628 0.0219043 0.0409614 0.0419025 0.0401015 0.0189681 -0.0154122 0.0353159 0.00180832 0.0401647 0.0261992 0.0489999
internal_weight=918.918 425.436 406.628 493.481 397.552 302.116 98.3775 211.782 162.526 104.511 75.238 95.9288 78.9017 185.77 128.511 89.819 38.6923 203.739 186.758 36.2618 22.9632 85.3993 23.7827 28.5402 72.8418 43.5171 80.8979 29.9351 23.0081 14.5596
internal_count=4310 1932 1841 2378 1940 1347 423 1081 841 494 354 438 355 859 577 407 170 924 850 168 103 365 104 122 360 194 365 131 101 64
is_linear=0
shrinkage=0.05


Tree=12
num_leaves=31
num_cat=0
split_feature=5 2 8 1 2 4 10 3 1 2 4 1 6 0 4 5 10 13 10 8 9 8 8 13 5 1 10 1 4 5
split_gain=28.9436 24.4871 24.465 17.1977 13.5964 13.29 12.9365 9.19329 10.332 8.52257 9.20812 12.4573 8.22926 10.0411 8.28124 7.90421 8.43948 8.37185 7.26142 7.06945 8.84342 7.06944 7.06712 8.94255 8.66401 7.15232 7.04825 6.93844 8.01266 6.9327
threshold=1.5000000000000002 0.18951148813141708 0.34721536320883167 0.69297926871389437 0.06142507391320351 0.42834270512725892 0.55600486678438521 5.1226913331913835 0.74666553054045637 0.34441373551047438 0.24938079292133611 0.48502499283556216 0.20864760353473186 15321.740435622894 0.27301245121244949 2.5000000000000004 0.89421482990259127 35.500000000000007 0.8553198811225976 0.48906222511499037 0.27269394234717087 0.67715062657078273 0.45908911677666436 36.500000000000007 1.0000000180025095e-35 0.8002025322079015 0.77514452986874527 0.54187089085283791 0.29782100866195016 1.0000000180025095e-35
decision_type=2 2 2 2 2 2 2 2 2 2 2 2 2 2 2 2 2 2 2 2 2 2 2 2 2 2 2 2 2 2
left_child=1 3 -3 5 -2 26 19 8 29 10 -9 -12 -5 14 -14 16 27 -17 -13 -4 -21 -7 24 -24 25 -15 -1 -6 -29 -8
right_child=4 2 6 12 15 21 7 9 -10 -11 11 18 13 22 -16 17 -18 -19 -20 20 -22 -23 23 -25 -26 -27 -28 28 -30 -31
leaf_value=0.018369545767766882 0.064170295528991214 0.02292580855503365 0.03482197808594089 -0.013956186884683886 0.039895641061963166 0.054749901803195278 0.0052981234379296544 -0.032994151784069552 -0.026926289911824181 -0.046562754810502316 0.042638561607037356 -0.0086467106392450789 0.00022138062387611892 -0.042396190195866018 0.064091536858143158 0.073641706115555414 0.055778189083668689 0.010559537448170654 -0.039677508310364769 0.047764959943451375 -0.014615846862594276 0.0076265528801486701 0.0043960721080550588 -0.029528914290599256 0.053617174959581432 0.027790546692644292 -0.0041937287993649916 -0.017404281583122676 0.019397213841497687 0.072877160919116959
leaf_weight=83.944190576672554 16.997316896915436 42.126340508460999 13.734230086207388 113.39438542723656 11.048141181468962 28.814957916736603 9.8946123123168999 91.148158639669418 14.580849245190619 40.1570985019207 9.7060721516609174 72.161275371909142 8.9481900632381457 6.7145690619945526 11.724935248494146 10.90480947494507 8.584663972258566 10.15972003340721 25.520148783922195 6.6015934646129599 40.761000290513039 10.996100500226019 49.809870228171349 31.843491062521935 11.458282977342606 7.900691881775856 58.893950939178467 38.05511662364006 24.193846508860588 6.1562907397747031
leaf_count=362 73 188 61 548 46 121 49 463 76 210 44 360 43 32 54 47 38 45 130 31 194 48 238 154 49 37 260 174 106 29
internal_value=-0.000157955 -0.00360414 -0.0129589 0.00460679 0.022741 0.0161868 -0.0175339 -0.022246 0.00354102 -0.0255553 -0.0213062 -0.0113857 -0.00414065 0.00452778 0.0364459 0.0159006 0.00887354 0.0432163 -0.0167538 0.00323783 -0.00592095 0.0417341 -0.0015974 -0.00883412 0.0210655 -0.00445477 0.00906643 0.00338 -0.00310092 0.0312179
internal_weight=916.935 796.991 372.548 424.444 119.944 182.649 330.421 269.325 30.6318 238.693 198.536 107.387 241.794 128.4 20.6731 102.946 81.8818 21.0645 97.6814 61.0968 47.3626 39.8111 107.727 81.6534 26.0735 14.6153 142.838 73.2971 62.249 16.0509
internal_count=4310 3781 1835 1946 529 791 1647 1361 154 1207 997 534 1155 607 97 456 364 92 490 286 225 169 510 392 118 69 622 326 280 78
is_linear=0
shrinkage=0.05


Tree=13
num_leaves=31
num_cat=0
split_feature=5 2 1 10 1 8 2 0 4 8 12 5 2 0 2 4 6 2 6 8 0 6 10 10 12 1 8 13 10 4
split_gain=26.9942 17.0419 18.0266 14.3859 15.0146 12.5623 9.69175 8.49333 9.47288 8.48029 9.12493 8.47599 8.30529 11.3287 8.18788 8.10724 11.7566 7.7238 7.45955 7.41257 7.30732 6.88658 7.15659 7.81271 7.87659 6.60712 6.92341 8.12448 11.015 6.87758
threshold=1.0000000180025095e-35 0.38112083817757897 0.83494885861709356 0.57227417133808489 0.71020907210806716 0.55770067910320542 0.014942496979112352 34297.180778097878 0.27108103204281014 0.44280132436887204 0.53269348544551531 2.5000000000000004 0.28522299794020828 25894.79034383161 0.014942496979112352 0.1126576961152914 0.17218114169151164 0.20944351361882999 0.33103569768593932 0.63871704673023333 11877.896424477725 0.41034991082198996 0.90666391288741177 0.74076956890369183 0.37917471893428129 0.32190962369860993 0.54043832796966351 28.500000000000004 0.88420687144168075 0.47424210847492992
decision_type=2 2 2 2 2 2 2 2 2 2 2 2 2 2 2 2 2 2 2 2 2 2 2 2 2 2 2 2 2 2
left_child=3 2 5 12 14 11 -7 8 19 -6 21 15 13 20 -5 16 -2 -10 -9 -4 -1 22 23 -11 -25 -16 27 -27 -29 -28
right_child=1 -3 7 4 9 6 -8 18 17 10 -12 -13 -14 -15 25 -17 -18 -19 -20 -21 -22 -23 -24 24 -26 26 29 28 -30 -31
leaf_value=-0.013092923178947136 -0.059335013712311785 -0.038070841490218388 0.0011662819787673455 0.030641312968862734 -0.0034588578765273946 0.047131423316975118 0.0042968685375804425 -0.04506818702198713 0.037634591418899549 -0.034957547162903176 -0.038125283257034501 0.076874587306502429 -0.022703758855400644 -0.0051486340505586883 0.043762911306814978 0.030367706448551468 0.024361096839067509 -0.010235095859084947 0.012681950104297988 -0.044527580781299834 0.041907367004975875 0.026322807521444141 -0.062887544997251951 0.036994692677497415 -0.015778980023675487 -0.019398529036253512 -0.022134850999724332 0.0062657535558107687 0.07458018425362628 0.018182998209041342
leaf_weight=7.2261903733015052 6.5326500535011318 18.362540572881699 24.758494511246681 17.354240775108337 49.044823497533798 14.470145612955092 151.09410694241524 21.245505049824718 23.293880626559258 23.574832782149315 87.070333361625671 8.4875356405973417 16.862936273217201 35.328621655702591 6.5571024119853965 111.18522109091282 11.729170367121695 13.20258593559265 7.5891736298799506 13.83518549799919 36.759920760989189 9.2087145894765836 8.414537310600279 11.087154775857927 19.515845522284508 24.078657537698746 77.767935305833817 40.118114113807678 6.9182000309228888 12.242605730891226
leaf_count=33 30 91 117 76 240 63 690 104 103 120 481 35 83 161 29 477 52 65 36 69 161 45 43 54 98 110 374 183 31 56
internal_value=-0.000157672 0.00904748 0.0111711 -0.00817072 -0.0124129 0.0173255 0.00804056 -0.006802 0.00205558 -0.0216331 -0.0272437 0.0284703 0.00916172 0.0159366 -0.00205267 0.0252965 -0.00557882 0.0203177 -0.0298686 -0.0152142 0.0328717 -0.014048 -0.0199875 -0.0133245 0.00334038 -0.00543632 -0.00743851 0.0042219 0.0163136 -0.0166511
internal_weight=914.917 425.786 407.424 489.131 392.953 303.499 165.564 103.925 75.0901 207.916 158.871 137.935 96.1777 79.3147 185.037 129.447 18.2618 36.4965 28.8347 38.5937 43.9861 71.8011 62.5924 54.1778 30.603 167.683 161.126 71.115 47.0363 90.0105
internal_count=4310 1932 1841 2378 1940 1347 753 494 354 1081 841 594 438 355 859 559 82 168 140 186 194 360 315 272 152 783 754 324 214 430
is_linear=0
shrinkage=0.05


Tree=14
num_leaves=31
num_cat=0
split_feature=2 1 8 12 5 10 2 4 5 6 2 8 5 2 6 4 9 8 7 7 3 10 2 3 4 2 9 12 10 1
split_gain=24.7144 22.7238 18.2313 15.3234 15.4152 14.3416 13.7627 11.715 10.2279 9.79797 8.95553 8.9073 8.80221 8.65409 8.14678 7.36425 7.22565 6.9985 7.68935 9.44851 8.55854 6.91767 7.27376 8.70541 6.85094 6.55066 6.52129 6.16361 6.75367 6.09014
threshold=0.27165465862083887 0.69174051897847788 0.39780637099712984 0.43113739378268995 1.0000000180025095e-35 0.39676842510669569 0.011522884864559003 0.47746226169678502 2.5000000000000004 0.1744229177253491 0.077961982980398567 0.65492218578283234 1.5000000000000002 0.031678240403985501 0.18854547347521736 0.13377007832242213 0.41976752822596947 0.40538155811115439 0.51383115268228108 0.47972086897452687 8.1604961145044772 0.67046530512826086 -0.021536607342151997 11.644332968131923 0.25144219856357536 0.37677432041871589 0.41410990998344416 0.66703224682387141 0.81403679035054421 0.85965493140847105
decision_type=2 2 2 2 2 2 2 2 2 2 2 2 2 2 2 2 2 2 2 2 2 2 2 2 2 2 2 2 2 2
left_child=1 7 15 10 5 -5 9 12 17 -7 13 -9 21 -3 -12 -2 -14 -6 19 20 -19 26 -23 -24 -20 29 -1 28 -25 -4
right_child=2 3 25 4 8 6 -8 11 -10 -11 14 -13 16 -15 -16 -17 -18 18 24 -21 -22 22 23 27 -26 -27 -28 -29 -30 -31
leaf_value=0.03765087977723975 -0.029541729448988436 0.01058255507024692 -0.012304284300435082 0.044755380332147127 0.022146311660540378 -0.02449789920887006 -0.028780952989112103 0.056200349473809114 0.061765187572244029 0.049273111908904932 -0.017574395178202033 0.0062861894100785243 0.0026964682850402202 0.066143948770204727 0.017345078512884086 0.028948357024475402 0.049793194134283431 0.019438520245520466 -0.010334355428255811 -0.066944341827176151 -0.017724031786447266 0.049138395129765672 0.0067909342842835223 -0.029418917822693392 0.040732847236208493 -0.041984254054622222 0.0085364411281647259 -0.045649856042347753 0.017423526333856468 -0.040126089901631475
leaf_weight=28.802614077925682 6.6969575434923163 14.47823151946068 104.64156386256218 8.1736388355493528 27.822167724370956 7.9257729947567013 134.16530314087868 26.86742989718914 6.9551372528076163 10.41618789732456 26.895860031247139 13.393609702587126 12.407390430569647 13.58363054692745 44.073149800300598 27.397371113300323 23.700417250394821 21.004576981067657 11.941398829221727 7.4219787418842307 59.04023639857769 7.2452483028173438 89.974257498979568 16.056820094585422 14.594168946146963 34.789827466011047 57.891388490796089 15.466106981039045 14.775844842195509 24.222861528396606
leaf_count=123 31 64 531 36 121 41 705 111 30 52 127 58 52 59 205 123 99 99 57 35 279 31 403 70 67 183 251 71 66 130
internal_value=-0.000157395 0.00416907 -0.0158022 -0.0035527 -0.00903091 -0.0197691 -0.0232273 0.0144576 0.00256625 0.0173958 0.0135661 0.0395954 0.0106574 0.0374776 0.00411128 0.0174595 0.0336098 -0.000336887 -0.00582389 -0.0129763 -0.0079722 0.00705743 0.000321051 -0.00227443 0.0177518 -0.0227317 0.0182092 -0.0198915 -0.00697075 -0.017534
internal_weight=912.821 715.073 197.749 408.491 309.461 160.681 152.507 306.581 148.78 18.342 99.0309 40.261 266.32 28.0619 70.969 34.0943 36.1078 141.825 114.002 87.4668 80.0448 230.212 143.518 136.273 26.5356 163.654 86.694 46.2988 30.8327 128.864
internal_count=4310 3312 998 1977 1522 834 798 1335 688 93 455 169 1166 123 332 154 151 658 537 413 378 1015 641 610 124 844 374 207 136 661
is_linear=0
shrinkage=0.05


Tree=15
num_leaves=31
num_cat=0
split_feature=1 2 6 4 12 2 10 9 4 8 14 4 12 8 8 13 6 11 5 1 10 9 4 3 14 3 3 10 9 8
split_gain=23.9268 19.2476 19.1876 14.7132 14.1358 11.5627 10.4397 10.0172 10.747 9.28006 8.80631 8.64178 8.3267 9.50608 8.14149 9.66023 9.81562 8.09236 7.57234 7.5025 8.85507 8.32792 7.19806 7.16359 6.72199 6.86655 6.65613 6.57325 6.18834 6.11558
threshold=0.59043812054555511 0.24954289207484012 0.39377388126861135 0.51114655691700783 0.49577929277113714 0.029152629089815453 0.38999992282686508 0.46681239303331545 0.23731570173151487 0.57089592388022681 1.5000000000000002 0.57312489922508136 0.8107028314370831 0.61686827414978851 0.46074082074035061 42.500000000000007 0.13429278186136279 0.79333662451623321 2.5000000000000004 0.83234118445306382 0.59292905333026436 0.41976752822596947 0.41599081697575796 9.7867997633834829 2.5000000000000004 11.124160919287414 17.461133312789894 0.77514452986874527 0.62590333909260665 0.74386717061846386
decision_type=2 2 2 2 2 2 2 2 2 2 2 2 2 2 2 2 2 2 2 2 2 2 2 2 2 2 2 2 2 2
left_child=18 2 4 9 7 10 -7 19 -9 24 -6 14 13 17 15 16 -8 22 26 20 -2 -22 -4 -15 25 -3 -1 29 -27 -10
right_child=1 3 12 -5 5 6 11 8 27 -11 -12 -13 -14 23 -16 -17 -18 -19 -20 -21 21 -23 -24 -25 -26 28 -28 -29 -30 -31
leaf_value=0.014025844664180588 0.087734860969538753 -0.030591628622070228 0.038038321488907144 0.020643025565231513 -0.0070126855070442931 0.032285156156336092 -0.028436183870955214 -0.023140780480252088 0.04104960224169487 -0.034299462033585096 0.038842554831553272 0.021464624453544905 -0.033263549749447431 -0.020610102565574124 -0.026638647418207009 -0.049123933634077077 0.021576135285377079 0.001891287498316964 0.066127396393190527 0.000420325291407189 0.011336764168771479 0.074292137712549958 0.088251693176864987 0.026495965639677339 0.017851197206756025 -0.012386620862751335 -0.034812584630688807 -0.0088010654408303048 0.044903683727211041 -0.01242700514649649
leaf_weight=210.23800466954708 7.277618631720542 40.78452305495739 29.279935732483864 21.584140315651894 24.049636200070381 10.894060760736464 14.384444802999495 35.771325990557671 22.061357557773594 89.202141255140305 18.543142259120941 13.094680592417715 6.4420260936021796 15.014663904905317 145.87217715382576 9.7814859896898252 30.855483964085579 11.12361505627632 6.7633899301290503 20.22188538312912 22.396290376782421 6.8626818656921378 9.437385827302931 17.45147243142128 16.236201539635658 17.317017883062366 7.2159689962863913 20.629046082496643 6.4764380604028693 7.0562381148338309
leaf_count=926 31 202 133 102 115 48 68 169 97 483 89 59 31 71 734 46 140 50 28 95 101 31 40 83 80 87 33 94 32 32
internal_value=-0.000164407 -0.00477484 0.000402029 -0.0182439 -0.00416327 -0.0109365 -0.0154608 0.00857017 -0.00223827 -0.0231807 0.0129508 -0.0178915 0.0214799 0.0257645 -0.0204568 -0.00406754 0.00567427 0.0394788 0.0140257 0.0248552 0.0383792 0.0261029 0.0502779 0.00471075 -0.0109079 -0.0181385 0.0124052 0.0127921 0.00320746 0.0280903
internal_weight=914.318 690.101 498.501 191.6 409.752 267.475 224.882 142.276 85.518 170.016 42.5928 213.988 88.7491 82.3071 200.894 55.0214 45.2399 49.8409 224.217 56.7585 36.5366 29.259 38.7173 32.4661 80.8142 64.578 217.454 49.7466 23.7935 29.1176
internal_count=4330 3343 2357 986 1949 1299 1095 650 392 884 204 1047 408 377 988 254 208 223 987 258 163 132 173 154 401 321 959 223 119 129
is_linear=0
shrinkage=0.05


Tree=16
num_leaves=31
num_cat=0
split_feature=1 2 12 8 8 6 10 0 4 10 4 5 4 14 2 14 12 2 10 14 5 6 11 4 8 6 1 8 13 2
split_gain=21.5794 17.6351 16.2773 10.5126 10.4703 10.3041 13.7541 9.7979 9.26431 8.47816 7.73244 8.93851 7.68239 6.89408 6.87321 7.91541 8.58644 6.80133 6.7669 7.29729 6.42545 6.33471 7.33603 6.24766 5.90356 5.75575 5.72965 6.98183 8.68093 5.68279
threshold=0.59043812054555511 0.27165465862083887 0.48282310938351625 0.64073370343139502 0.57089592388022681 0.21655377619556598 0.54703629056237446 14598.571751637426 0.488701544415517 0.42710714222095153 0.24938079292133611 1.5000000000000002 0.49716549027836376 1.0000000180025095e-35 0.40865132399781651 2.5000000000000004 0.71547298353822908 0.22125888496276838 0.75453403008019893 3.5000000000000004 1.5000000000000002 0.078162836151534923 0.83953316030709491 0.13885426586620722 0.48906222511499037 0.39377388126861135 0.46981740815282214 0.38286949956057253 24.500000000000004 0.082885293133293167
decision_type=2 2 2 2 2 2 2 2 2 2 2 2 2 2 2 2 2 2 2 2 2 2 2 2 2 2 2 2 2 2
left_child=18 2 9 5 14 20 24 -8 -6 -2 25 21 17 -5 15 16 -3 -9 -1 23 -4 -12 -23 -20 -7 29 -25 -28 -29 -11
right_child=1 4 3 13 8 6 7 12 -10 10 11 -13 -14 -15 -16 -17 -18 -19 19 -21 -22 22 -24 26 -26 -27 27 28 -30 -31
leaf_value=0.021050876624983658 0.060347190589898209 0.0011984939980212389 -0.016144405837038255 -0.041516073275170741 -0.039363192494421162 0.075693063290600798 0.036038837343421164 -0.0026396778192856515 0.014010338179543821 0.017067342682164824 -0.031841319606645602 0.059907673822646071 0.039944644237565607 -0.012189851106515145 -0.047365491304723728 0.033687289359721463 -0.046936248336749094 -0.04033886525846498 -0.027189995766469584 0.052334875545821641 0.020543968899357973 0.024809924963842576 -0.018148941894105278 0.024392212830786981 0.023190733770568572 0.028447324078619114 0.037989086679331041 0.034287380407844591 -0.024237824240280027 -0.017139343872324544
leaf_weight=124.75611133873463 8.6688386946916562 41.615813314914703 92.49073851108551 24.76431904733181 66.247325077652931 9.4166910648345965 17.596470147371292 60.820031747221947 9.2675570100545865 16.368285790085793 7.0526863336563101 11.869778737425802 8.549891531467436 105.05544038116932 9.0633865892887098 13.218639448285101 11.918089136481283 14.893505439162253 17.357202604413033 7.134743556380271 13.701970189809797 60.821375831961632 11.878868147730826 27.286846667528152 12.410985320806502 12.803672701120375 8.1359642595052701 7.8764406442642203 32.398608848452568 47.021131500601768
leaf_count=542 37 208 455 126 369 40 81 288 45 74 33 50 38 531 46 64 58 75 79 31 59 272 54 118 56 58 34 35 148 226
internal_value=-0.000163298 -0.00456155 -0.000307296 -0.0064095 -0.0196349 1.40472e-05 0.00982269 0.00210432 -0.0328129 0.0121298 0.00963909 0.0194265 -0.00498211 -0.0177841 -0.00650926 -0.00096197 -0.0095176 -0.0100554 0.0132793 0.00360225 -0.0114105 0.0134016 0.0177907 -0.000134191 0.0458408 -0.00213035 0.00606959 -0.00425794 -0.0127923 -0.00830656
internal_weight=912.461 687.515 536.185 359.7 151.331 229.88 123.688 101.86 75.5149 176.485 167.816 91.6227 84.2634 129.82 75.8159 66.7525 53.5339 75.7135 224.946 100.19 106.193 79.7529 72.7002 93.0551 21.8277 76.1931 75.6979 48.411 40.275 63.3894
internal_count=4330 3343 2553 1749 790 1092 578 482 414 804 767 409 401 657 376 330 266 363 987 445 514 359 326 414 96 358 335 217 183 300
is_linear=0
shrinkage=0.05


Tree=17
num_leaves=31
num_cat=0
split_feature=1 2 12 9 4 10 6 1 8 4 10 8 5 13 10 11 5 2 5 2 14 12 9 1 3 7 11 8 8 6
split_gain=19.4658 16.1275 14.6908 10.9716 13.187 10.2807 9.86859 10.388 9.76481 8.62396 8.06204 7.92246 7.32694 7.23449 8.04598 7.05901 6.71758 6.66973 6.48228 6.40121 7.36053 7.97227 5.94019 5.89041 5.86479 5.65677 6.78649 8.3773 7.25468 6.41052
threshold=0.59043812054555511 0.27165465862083887 0.48282310938351625 0.46309011972520336 0.23731570173151487 0.56994370734817468 0.15792866929396579 0.83494885861709356 0.57089592388022681 0.488701544415517 0.7618383011247295 0.48906222511499037 1.5000000000000002 42.500000000000007 0.61615546630822726 0.86810132728265577 2.5000000000000004 0.039725056100158453 1.0000000180025095e-35 0.41569367644209759 2.5000000000000004 0.71547298353822908 0.57147857572855021 0.79754763363302494 17.461133312789894 0.14811783767414047 0.51613283701174384 0.78107083757765661 0.51473392512347493 0.20475639820900718
decision_type=2 2 2 2 2 2 2 2 2 2 2 2 2 2 2 2 2 2 2 2 2 2 2 2 2 2 2 2 2 2
left_child=16 2 3 5 22 -2 10 11 19 -10 -4 13 -6 14 -8 -9 24 -12 -16 20 21 -3 -5 -22 -1 -13 -27 28 -28 -30
right_child=1 8 6 4 12 -7 7 15 9 -11 17 25 -14 -15 18 -17 -18 -19 -20 -21 23 -23 -24 -25 -26 26 27 -29 29 -31
leaf_value=0.012558728802764561 0.069564670502259424 0.00055146215784101691 -0.0072920055273785582 -0.046120626625013324 0.0093716106081247579 0.018198472731984005 0.066508093596290924 -0.021037785996221716 -0.038204040155728682 0.013235412175500366 0.0051001179302021925 -0.043519118209773139 0.061670428666215638 -0.016999327779223149 -0.0054421821208672609 0.017941323461455095 0.061425917756563954 -0.044336198426418741 0.038240225998980124 -0.049290901894043032 0.059609230587924805 -0.045830080869781284 -0.0068068741747583901 -0.0058799747995529061 -0.033548009267460766 -0.022682209784980201 -0.035169496837615652 -0.032535955062787558 0.059361231617628352 0.013758307546393227
leaf_weight=211.5486201196909 11.573399499058722 42.003081604838371 63.476896047592163 14.638969883322714 53.489983856678009 61.529667064547539 11.54227341711521 72.049010545015335 64.879671171307564 9.318313926458357 8.4059185087680799 7.3427152484655371 7.6554493755102149 9.7640376538038236 15.671206265687941 13.847342506051062 6.8257566541433325 36.224197790026665 18.541020959615707 7.73981849849224 7.8751201480627042 11.886548578739164 27.960579797625542 6.0879151374101639 7.129491761326789 21.95308230817318 6.4980556517839423 10.65467946231365 9.0075189620256406 53.347560927271843
leaf_count=926 49 210 309 70 240 280 49 367 369 45 42 37 32 45 75 68 28 188 78 40 37 59 133 30 33 106 31 54 43 257
internal_value=-0.0001616 -0.00435645 -0.000297492 0.0114944 0.00104024 0.0263306 -0.00611727 -0.000663137 -0.0188584 -0.0317439 -0.0187411 0.00670258 0.0159195 0.0220719 0.0304097 -0.014754 0.0125802 -0.035025 0.0182311 -0.00621051 -0.00129642 -0.00967901 -0.0203167 0.0310558 0.0110555 -0.00113982 0.00192716 0.00872211 0.0151066 0.0203459
internal_weight=910.468 684.964 535.174 176.848 103.745 73.1031 358.326 250.219 149.79 74.198 108.107 164.322 61.1454 55.5185 45.7545 85.8964 225.504 44.6301 34.2122 75.5925 67.8527 53.8896 42.5995 13.963 218.678 108.804 101.461 79.5078 68.8531 62.3551
internal_count=4330 3343 2553 804 475 329 1749 1210 790 414 539 775 272 247 202 435 987 230 153 376 336 269 203 67 959 528 491 385 331 300
is_linear=0
shrinkage=0.05


Tree=18
num_leaves=31
num_cat=0
split_feature=5 1 2 1 4 8 2 8 2 6 14 12 10 0 0 4 7 12 1 5 6 11 7 13 7 4 11 8 0 2
split_gain=18.4424 15.9448 16.9822 11.3268 10.3226 9.33968 9.08783 9.05311 11.0836 9.01281 10.1068 8.94882 8.45525 8.5633 8.31158 8.86585 8.6037 8.77056 7.41573 7.10247 6.27717 5.94612 7.468 5.83669 5.83732 12.0284 6.60582 5.75232 5.73002 6.94151
threshold=1.0000000180025095e-35 0.83494885861709356 0.39011616365227586 0.58761758703212075 0.60959414985263838 0.55770067910320542 0.13825924023777378 0.57089592388022681 0.30057061491569143 0.35772343967411463 1.5000000000000002 0.43288678703904221 0.5062772779314173 36644.362844913463 34297.180778097878 0.24493045674274136 0.47212560578955803 0.51458196884957241 0.48011842528989351 2.5000000000000004 0.32494934263472292 0.64852423636081091 0.23561655427779152 48.500000000000007 0.40848341006662398 0.21648218027879959 0.68929507712279514 0.43990812935954476 19275.572519364643 0.051713360675698754
decision_type=2 2 2 2 2 2 2 2 2 2 2 2 2 2 2 2 2 2 2 2 2 2 2 2 2 2 2 2 2 2
left_child=3 2 4 -1 5 19 28 9 11 20 -11 -9 -8 18 15 -3 17 -17 -14 23 21 22 -5 24 -2 26 -26 -12 29 -7
right_child=1 14 -4 7 -6 6 12 8 -10 10 27 -13 13 -15 -16 16 -18 -19 -20 -21 -22 -23 -24 -25 25 -27 -28 -29 -30 -31
leaf_value=0.0064385400734119835 0.032036944502389565 -0.018828647666994745 -0.053385475589298383 0.019127136114118006 0.05988344778669618 0.073411268750503952 0.032432021380289659 0.0056021794410605931 -0.048734482651478762 -0.0057892409994327087 0.074582093477477587 -0.021245671264912124 0.035890895339821052 -0.040233188790944396 -0.031883530536574112 0.031616203336248018 0.049962813498030431 -0.024772930269364085 -0.0090713967000112857 0.064980193309733925 -0.045247326355398618 0.0027758422392475321 -0.028168357454205373 -0.024975550401291933 -0.051335219275276137 0.027917875551897672 0.0080352660077528133 0.017893798936814292 0.0087089189699374632 0.016680121669040354
leaf_weight=120.98847657442093 67.46604123711586 35.590253055095673 9.3346086889505369 10.374473392963408 12.335145160555838 9.3114267438650149 13.567918658256529 42.609314486384392 26.822528436779976 20.422259584069252 8.7747045606374758 114.28511410951614 10.939315691590307 18.44640277326107 29.530261158943176 12.301474258303644 12.453096881508825 15.691823333501814 56.718675285577774 9.3277897834777814 11.056279584765432 77.927856206893921 42.6983782351017 6.8912145197391501 9.5675194859504717 32.89739516377449 9.1811355352401716 9.1325948238372785 39.042955249547958 12.809901952743528
leaf_count=539 289 179 48 51 52 39 61 200 161 100 39 613 47 89 148 56 57 76 272 38 54 384 213 30 43 139 41 43 173 56
internal_value=-0.000160056 0.00746516 0.0130571 -0.00681559 0.0150675 0.013201 0.0050563 -0.0112198 -0.0190322 -0.0032632 0.0182528 -0.0139543 -0.00425412 -0.010035 -0.00937093 -0.000627738 0.0153879 6.91116e-06 -0.00180165 0.0228806 -0.00906862 -0.00601519 -0.0189232 0.0197641 0.0223525 0.00970157 -0.0222617 0.0456715 0.0202284 0.0405597
internal_weight=908.496 423.404 317.837 485.092 308.503 296.168 160.837 364.104 183.717 180.387 38.3296 156.894 99.6723 86.1044 105.567 76.0366 40.4464 27.9933 67.658 135.331 142.057 131.001 53.0729 126.003 119.112 51.6461 18.7487 17.9073 61.1643 22.1213
internal_count=4330 1933 1417 2397 1369 1317 737 1858 974 884 182 813 469 408 516 368 189 132 319 580 702 648 264 542 512 223 84 82 268 95
is_linear=0
shrinkage=0.05


Tree=19
num_leaves=31
num_cat=0
split_feature=2 8 4 5 12 2 11 4 0 2 8 3 11 11 2 9 1 10 0 3 7 3 1 9 5 0 7 1 3 3
split_gain=17.1056 14.3694 16.1507 13.1418 10.3744 9.98409 9.94158 9.93554 9.75792 9.52427 8.34525 11.3899 8.33368 9.61186 8.31834 7.92833 7.90509 7.71876 7.61049 9.64153 7.93438 7.5618 7.4401 7.08749 6.799 7.0397 7.16444 7.25557 9.68507 10.3184
threshold=0.075913952986039715 0.62143384300521665 0.60959414985263838 2.5000000000000004 0.42945771443635489 0.29890018903719295 0.71319149596791787 0.24938079292133611 31812.225731468243 -0.034037309416652596 0.64073370343139502 13.418254597256627 0.67164735491554195 0.77211470949209404 0.40865132399781651 0.36781153102003789 0.65948920984312653 0.54703629056237446 26065.878618437589 8.9121824742520577 0.27283353953261297 8.2437984764188901 0.70437399977291892 0.67647041191847546 1.0000000180025095e-35 16689.934162533631 0.64598505291906838 0.85426212760458642 11.59642904499824 10.060515751246655
decision_type=2 2 2 2 2 2 2 2 2 2 2 2 2 2 2 2 2 2 2 2 2 2 2 2 2 2 2 2 2 2
left_child=4 3 5 7 6 16 -1 12 10 -10 11 23 17 18 24 -11 -3 21 19 -14 -20 -2 -15 -6 25 -9 27 28 29 -27
right_child=1 2 -4 -5 8 -7 -8 14 9 15 -12 -13 13 22 -16 -17 -18 -19 20 -21 -22 -23 -24 -25 -26 26 -28 -29 -30 -31
leaf_value=0.054685424431735553 0.052087446835162157 0.0024010103018020277 0.051471338320593335 0.053801126652591784 0.023227689747707874 -0.035487793158064954 0.0056319750221715051 -0.019592238996018523 0.032898093710548658 0.016301457315241769 -0.0036965899710906178 0.066657524286339434 -0.040571257129418642 0.0073154461160879498 -0.042710351049131734 -0.039633652720515375 -0.016968430891648508 -0.026306385092391221 -0.0031925315950783804 0.024526439879584069 0.061909203757430392 -0.017107633891314152 -0.027884832213938879 -0.031862921105330413 0.019145602337109685 0.018288648261906841 -0.044883038346838842 -0.01816767778102054 -0.0091722570124974367 0.071872717030630792
leaf_weight=25.790661990642548 6.8053269833326366 81.008644446730614 9.6106234192848188 11.966438814997671 39.727220848202705 46.916612014174461 17.229063034057617 29.753122732043266 8.8839474618434888 8.5048022270202619 34.926047950983047 13.934391200542448 9.1657556295394915 28.251089423894882 7.927219182252883 24.832128584384918 150.61088752746582 70.816224128007889 6.926740080118182 14.990515261888502 14.430804863572119 9.4049490839242917 32.03245022892952 6.8439413309097281 99.664347529411316 39.250946402549744 5.9444345831871024 16.468405961990356 21.962044343352318 11.651132270693777
leaf_count=109 30 365 43 50 179 269 74 144 41 39 165 61 45 128 42 117 782 347 32 70 67 43 163 32 436 185 30 84 105 53
internal_value=-0.000158278 -0.00358619 -0.0122556 0.00212485 0.0136078 -0.0144545 0.0350399 0.000671358 0.00690976 -0.0131045 0.0157645 0.0269981 -0.00772109 0.00170641 0.00762799 -0.0253637 -0.010194 -0.019182 0.019051 -0.000173961 0.0407952 0.0119415 -0.0113887 0.0151318 0.00940393 0.00163862 0.0082686 0.0118055 0.0185798 0.0305537
internal_weight=906.231 725.559 288.147 437.412 180.672 278.536 43.0197 425.446 137.652 42.2209 95.4316 60.5056 192.824 105.797 232.622 33.3369 231.62 87.0265 45.5138 24.1563 21.3575 16.2103 60.2835 46.5712 224.694 125.03 95.277 89.3325 72.8641 50.9021
internal_count=4330 3513 1459 2054 817 1416 183 2004 634 197 437 272 925 505 1079 156 1147 420 214 115 99 73 291 211 1037 601 457 427 343 238
is_linear=0
shrinkage=0.05


Tree=20
num_leaves=31
num_cat=0
split_feature=5 4 0 10 8 6 2 4 2 1 6 4 2 1 8 9 6 1 0 2 0 0 11 8 8 13 7 6 1 3
split_gain=18.7318 16.4306 11.881 11.6761 10.8782 11.7525 9.727 9.21123 8.80806 8.3244 10.7586 8.86597 8.03264 8.36725 7.2095 10.7189 7.04966 6.937 6.4155 7.53437 7.87618 6.63467 8.30768 6.39061 6.09821 8.92798 6.0224 5.903 5.85909 5.93944
threshold=1.0000000180025095e-35 0.15479389984977834 34297.180778097878 0.57227417133808489 0.61686827414978851 0.49025444837757659 0.070966937015263312 0.27656428141443307 0.26309661459088124 0.48502499283556216 0.35464963769537577 0.3513258118597552 0.079781460372268964 0.77568359142791066 0.526749494536637 0.45066353025391598 0.28139260425131291 0.69174051897847788 24768.414323338253 0.28522299794020828 15201.549683912481 37573.397107830555 0.6609031614198847 0.6018515475026196 0.71310303181433976 22.500000000000004 0.56851776148043376 0.33103569768593932 0.86197207632058037 9.8254461001917637
decision_type=2 2 2 2 2 2 2 2 2 2 2 2 2 2 2 2 2 2 2 2 2 2 2 2 2 2 2 2 2 2
left_child=3 17 4 18 5 12 14 8 16 11 27 -8 13 -3 15 -5 -4 -2 19 20 -1 -20 -23 -14 28 -26 -12 -11 29 -6
right_child=1 2 7 6 24 -7 9 -9 -10 10 26 -13 23 -15 -16 -17 -18 -19 21 -21 -22 22 -24 -25 25 -27 -28 -29 -30 -31
leaf_value=-0.0023296761500049162 0.0055869490321324693 0.073592555876988208 0.0096196525845121065 0.058168108359434083 0.021287703875509108 0.079741034523783644 -0.010486252684076417 -0.014713987158407367 -0.029164716472976651 -0.021236290540456046 -0.0054785286451929528 0.041862834704383879 0.014680432704162933 0.012144406375626091 -0.0087586473809671567 -0.00038135631424494822 0.064535151543247099 -0.020869217727165292 -0.022710499189845058 -0.022078569843828905 0.043492580161731728 -0.019056608736113166 0.046277994039684328 0.064383703628545993 -0.034136480820113731 0.025015779438549608 0.040991109907024932 -0.059256554501959893 -0.053990892868467866 -0.020324454942138161
leaf_weight=13.716596618294714 42.151342138648033 14.530251294374468 13.175466284155851 13.027398034930227 16.090357929468155 10.066615387797354 22.891527786850929 56.463205203413963 7.2031362801790229 198.43584631383419 54.000027135014534 12.507239580154417 100.42858584225178 8.9537260532379133 39.393413960933685 19.544986575841904 10.502687424421309 60.113841995596886 24.589883595705032 8.6622789949178678 29.64714603126049 8.993476942181589 10.600609645247458 6.9122610539197913 7.4054024368524543 46.022240161895752 8.0058995187282544 10.762701183557509 6.1169405877590171 18.360005259513855
leaf_count=61 187 59 61 58 74 42 104 257 37 1050 273 54 440 39 193 90 46 303 115 45 128 42 49 31 35 212 41 57 31 85
internal_value=-0.00013488 0.00749684 0.0130385 -0.00695833 0.0188932 0.027682 -0.0109112 -0.00270584 0.0192498 -0.0147941 -0.0177706 0.00800994 0.0236761 0.0501642 0.00563174 0.0230356 0.033978 -0.0099646 0.00859543 0.0204941 0.0289983 -0.00541506 0.0162901 0.0178811 0.00571944 0.0168169 0.000521402 -0.0231923 -0.00889607 -0.000889115
internal_weight=899.275 424.496 322.231 474.779 234.886 140.891 378.569 87.3445 30.8813 306.603 271.204 35.3988 130.825 23.484 71.9658 32.5724 23.6782 102.265 96.21 52.026 43.3637 44.184 19.5941 107.341 93.9949 53.4276 62.0059 209.199 40.5673 34.4504
internal_count=4299 1939 1449 2360 1048 611 1920 401 144 1579 1421 158 569 98 341 148 107 490 440 234 189 206 91 471 437 247 314 1107 190 159
is_linear=0
shrinkage=0.05


Tree=21
num_leaves=31
num_cat=0
split_feature=5 4 10 1 2 8 12 11 4 8 2 12 7 6 12 1 7 9 11 3 7 8 11 12 7 2 7 10 8 4
split_gain=16.9452 14.8129 10.5906 10.3823 12.2961 12.4516 10.1466 9.75021 9.06853 9.3382 10.3757 7.91246 7.56783 7.38097 7.17729 7.13102 7.7707 7.04138 6.88577 6.75931 6.17691 5.89291 6.33202 6.07147 7.81737 6.20794 5.88531 5.6565 5.52051 11.0375
threshold=1.0000000180025095e-35 0.15479389984977834 0.57227417133808489 0.87938782340553523 0.38112083817757897 0.44823965352810402 0.81482070155161768 0.92747253913062522 0.51564865749370836 0.59849178136729642 0.26130304771334151 0.38367505679303587 0.59684669737199403 0.22235339346678809 0.62944776515455492 0.47436267594943715 0.28897037142538212 0.52212476089164006 0.58532215481406724 15.119729417392977 0.34453255444704584 0.37459385875090634 0.74905322647460448 0.81799679692814808 0.27130290444685901 0.28522299794020828 0.44700688962899521 0.81214027726415805 0.64267803625989484 0.54660775869332368
decision_type=2 2 2 2 2 2 2 2 2 2 2 2 2 2 2 2 2 2 2 2 2 2 2 2 2 2 2 2 2 2
left_child=2 14 21 4 5 -3 7 28 9 12 11 18 15 -14 -2 16 -4 20 -11 -13 -16 22 -1 24 -23 -26 -5 -10 29 -7
right_child=1 3 8 26 -6 6 -8 -9 27 10 -12 19 13 -15 17 -17 -18 -19 -20 -21 -22 23 -24 -25 25 -27 -28 -29 -30 -31
leaf_value=0.068237121558112998 -0.02160285937635514 0.03687574278175082 0.059897646089133429 -0.021118279090942202 -0.041045317939705173 0.020352602871663811 -0.03213617316527722 -0.037779878362877772 0.026995064100720043 0.051181558101469175 -0.046970154129051984 -0.025179610875891781 -0.0062308717508687758 0.062976743278029129 0.057700763019894456 -0.012374599797625639 -0.0036830963418206506 -0.013737379204941136 -0.0098837015531539982 0.026493391943090312 0.0038465952591042701 0.034231694233389308 0.0036817329012683803 -0.042930788035910605 0.0048063420228797692 -0.040182016173676886 0.015071228363424319 -0.01434806348776403 0.0081592431161176242 0.080974862372594741
leaf_weight=7.7801296859979612 55.649313062429428 66.471747651696205 7.3919281065464046 32.599486246705055 9.071813225746153 82.923406824469566 12.291007086634634 8.4232190698385221 24.553149744868279 7.5223605483770397 33.52585244178772 85.648413747549057 7.8341038078069669 7.5801966935396194 8.8647391647100466 157.36724352836609 13.734883755445479 23.94694510102272 11.95005291700363 6.8336603492498389 13.332021743059157 19.346541002392769 7.4224723428487778 6.662746623158454 45.869788140058517 9.207284748554228 17.141413152217865 12.477831125259398 85.559697687625885 8.2559489607810956
leaf_count=33 270 277 32 159 48 363 57 38 115 35 206 454 40 36 41 789 60 115 57 36 64 89 32 32 205 49 82 60 391 34
internal_value=-0.000133487 0.00711724 -0.00664523 0.0123625 0.0161905 0.0181579 0.0118566 0.0147768 -0.0104304 -0.0129939 -0.0225691 -0.015262 -0.00581007 0.0278029 -0.0095131 -0.00871281 0.0185628 0.00506714 0.0137063 -0.0213614 0.0253544 0.008152 0.0367188 0.00279611 0.0068898 -0.0027144 -0.00864687 0.0130642 0.0172816 0.0258417
internal_weight=897.239 424.531 472.709 322.738 272.997 263.925 197.453 185.162 376.42 339.389 145.48 111.954 193.908 15.4143 101.793 178.494 21.1268 46.1437 19.4724 92.4821 22.1968 96.289 15.2026 81.0864 74.4236 55.0771 49.7409 37.031 176.739 91.1794
internal_count=4299 1939 2360 1449 1208 1160 883 826 1920 1745 788 582 957 76 490 881 92 220 92 490 105 440 65 375 343 254 241 175 788 397
is_linear=0
shrinkage=0.05


Tree=22
num_leaves=31
num_cat=0
split_feature=5 4 0 10 13 6 2 12 8 9 4 2 2 12 3 4 12 7 8 4 7 14 9 6 6 4 5 0 12 9
split_gain=15.3379 13.3672 10.6179 9.60953 9.42926 9.30421 8.68324 8.89643 9.22546 11.1402 8.20954 7.86236 7.8234 7.28552 7.14743 7.07864 6.5401 6.52573 6.9847 9.85886 7.72802 6.49069 6.32129 6.27143 5.90145 7.34458 5.83179 5.78565 6.53143 9.83698
threshold=1.0000000180025095e-35 0.15479389984977834 34297.180778097878 0.57227417133808489 22.500000000000004 0.49025444837757659 0.070966937015263312 0.39571415756842149 0.526749494536637 0.46309011972520336 0.27656428141443307 0.26309661459088124 0.065116544425508169 0.80546383293983292 9.5886492246338353 0.24651154004364342 0.62944776515455492 0.17258562253231993 0.34371732719366316 0.21520783042931627 0.38265979614915463 2.5000000000000004 0.52212476089164006 0.32105724710481792 0.37468795507636482 0.578631790580176 1.5000000000000002 19461.646425113755 0.70545894888917926 0.37630633003427272
decision_type=2 2 2 2 2 2 2 2 2 2 2 2 2 2 2 2 2 2 2 2 2 2 2 2 2 2 2 2 2 2
left_child=3 16 4 -1 14 12 7 -5 9 -9 11 23 -6 17 -3 -8 -2 -14 -19 20 -20 -10 26 -4 25 27 -18 -21 29 -29
right_child=1 2 10 6 5 -7 15 8 21 -11 -12 -13 13 -15 -16 -17 22 18 19 24 -22 -23 -24 -25 -26 -27 -28 28 -30 -31
leaf_value=0.0077321469517092588 -0.02069556851596166 0.016116474573115765 0.010697220796652767 0.043344169346251168 0.03944878402831184 0.060690883042833522 -0.022376251742915687 0.05858396611658933 -0.03055051649067933 -0.0080387618084047912 -0.014558937022892111 -0.028593147596644181 0.050945732664019187 -0.020868254800324507 -0.034297981119082624 -0.0069530821052552197 0.0042543659872565495 0.042438362354931175 0.012651114863866126 0.0019158462859698016 -0.052007047397362595 0.02648159575775378 -0.013118105895181859 0.063161190279799453 -0.014505273873587327 0.068864384356634542 0.057083287680957544 0.087755957785110278 -0.012460698084040829 0.02282244103050959
leaf_weight=96.358699172735214 55.196315795183182 13.620388790965082 14.570098415017133 12.85715466737747 35.169013828039169 13.740410909056662 132.00071929395199 10.797927007079126 27.009916752576828 14.978576570749281 56.23876091837883 7.1358291059732428 12.713162451982496 14.14145742356777 14.530631691217421 170.47155652940273 14.053182452917101 17.93349289894104 8.1158017665147799 36.910283997654915 10.732582598924635 6.118925765156745 23.826693639159203 9.352582171559332 14.040153250098227 7.1855582296848288 8.3147579580545408 7.992346495389941 7.2931087911128989 21.584430068731308
leaf_count=440 270 62 67 54 149 59 705 48 137 71 257 37 55 65 66 874 68 74 37 168 51 31 115 40 63 30 37 36 35 98
internal_value=-0.000132639 0.00676 0.0117317 -0.00634857 0.0172487 0.0209318 -0.00997409 0.00566216 -0.00256262 0.0198699 -0.00316428 0.0174684 0.0181131 0.0133832 -0.00990581 -0.0136838 -0.00907832 0.0167352 0.013435 0.00886659 -0.0241663 -0.0200166 0.00480272 0.031208 0.01542 0.0206094 0.0238923 0.0159097 0.0299189 0.040369
internal_weight=894.985 424.391 323 470.593 235.703 207.552 374.235 71.7625 58.9053 25.7765 87.2973 31.0585 193.811 158.642 28.151 302.472 101.391 144.501 131.788 113.854 18.8484 33.1288 46.1946 23.9227 95.0059 80.9657 22.3679 73.7802 36.8699 29.5768
internal_count=4299 1939 1449 2360 1048 920 1920 341 287 119 401 144 861 712 128 1579 490 647 592 518 88 168 220 107 430 367 105 337 169 134
is_linear=0
shrinkage=0.05


Tree=23
num_leaves=31
num_cat=0
split_feature=8 2 2 4 6 1 6 10 4 11 6 2 12 11 0 11 10 10 10 6 13 9 4 11 2 7 11 3 3 4
split_gain=14.642 12.3396 9.42764 9.57148 9.64691 13.75 8.01808 7.84739 9.86558 8.54511 7.7676 7.64615 7.59889 5.94718 9.30526 6.49204 5.71552 7.17819 5.93708 5.78067 5.81301 7.00547 5.60564 9.72075 7.32497 5.47932 5.73549 5.23595 6.63378 6.58368
threshold=0.62143384300521665 0.30057061491569143 -0.034037309416652596 0.49716549027836376 0.35772343967411463 0.59043812054555511 0.32494934263472292 0.5903270909751418 0.25618743877084821 0.68448079282010565 0.37468795507636482 0.15001497348564252 0.47196538454269404 0.80738916163110541 34584.618927323165 0.69639882646035767 0.75597046687665104 0.82272518120509142 0.85800695984575592 0.12536379281907714 43.500000000000007 0.49723599908424226 0.37625858626843439 0.59992848236813512 0.26796623374899031 0.28218680388441975 0.69809753612011261 15.205941418877865 16.010482047404633 0.3251051424494838
decision_type=2 2 2 2 2 2 2 2 2 2 2 2 2 2 2 2 2 2 2 2 2 2 2 2 2 2 2 2 2 2
left_child=2 12 -1 4 5 16 7 8 25 -9 -6 -5 22 14 -12 -16 19 -18 -19 -4 21 -21 24 -24 -2 -7 -27 -14 -29 -30
right_child=1 -3 3 11 10 6 -8 9 -10 -11 13 -13 27 -15 15 -17 17 18 -20 20 -22 -23 23 -25 -26 26 -28 28 29 -31
leaf_value=0.038115177482613602 0.0049869587183205936 -0.032561429990473373 0.054342335435339964 0.044569707952525302 0.050218303393862199 0.029325377328531074 -0.04070537714082624 -0.021602287491804633 0.034201991282121952 -0.0002933222501126926 0.025471530987701829 0.0081243690899613901 -0.012457030268015262 -0.013424777971920911 -0.042007637025022693 0.021489068215541415 -0.025344748561798552 0.054025570488208219 0.00020487714218252073 0.047169433573543779 -0.023819550501660222 -0.0025019555947725517 0.065883512472566672 0.0023997808185844531 -0.050453006749774369 0.0057335508974259682 -0.045481777578485538 0.053025294104429369 -0.039118977297286979 0.029522190859799725
leaf_weight=20.726273432374001 65.754452645778656 44.818481504917145 12.864163085818289 23.712687909603119 13.146295592188833 7.0616290569305447 18.118332341313362 94.696629121899605 24.317466154694557 93.499359920620918 58.187048867344856 36.60982745885849 189.58529779314995 22.260769382119179 10.125739991664888 6.6818631291389456 16.365765079855919 7.6316183209419277 15.594808563590048 16.304297640919689 7.5162848532199851 12.571973994374273 9.9245480000972766 15.366140261292456 6.551637038588523 10.351167172193529 11.584228143095968 7.1335777491331127 7.2879577875137311 6.7092860192060471
leaf_count=90 305 266 54 101 60 33 90 473 108 464 264 165 960 104 48 30 73 33 68 69 33 54 44 68 37 48 54 35 36 32
internal_value=-0.000130671 -0.0080471 0.00504694 0.00372688 0.00126548 -0.00281504 -0.00862514 -0.00621845 0.0107151 -0.0110156 0.0141454 0.022451 -0.00448353 0.00926936 0.0160057 -0.0167645 0.0141629 1.7967e-05 0.017889 0.0255324 0.0153486 0.0255438 0.00705048 0.027312 -3.64429e-05 -0.00898152 -0.0213136 -0.0098257 0.0137825 -0.00621727
internal_weight=893.06 353.131 539.928 519.202 458.879 348.478 259.629 241.51 53.3145 188.196 110.402 60.3225 308.313 97.2554 74.9947 16.8076 88.8489 39.5922 23.2264 49.2567 36.3926 28.8763 97.5968 25.2907 72.3061 28.997 21.9354 210.716 21.1308 13.9972
internal_count=4299 1783 2516 2426 2160 1654 1270 1180 243 937 506 266 1517 446 342 78 384 174 101 210 156 123 454 112 342 135 102 1063 103 68
is_linear=0
shrinkage=0.05


Tree=24
num_leaves=31
num_cat=0
split_feature=5 4 0 13 10 6 1 2 12 4 6 4 12 1 6 4 1 12 13 6 3 12 14 1 3 3 6 13 6 10
split_gain=13.9818 11.7557 9.37427 8.42611 8.32862 8.04415 7.67591 7.54819 7.77974 7.55793 7.43623 9.78169 7.0735 6.97476 9.42208 7.58673 6.75418 7.10471 9.98866 6.64209 6.50198 6.31144 6.26721 6.25323 6.01747 5.93224 6.36299 5.89329 5.85856 9.46109
threshold=1.0000000180025095e-35 0.15479389984977834 34297.180778097878 22.500000000000004 0.57227417133808489 0.49025444837757659 0.86809059065372285 0.070966937015263312 0.39571415756842149 0.488701544415517 0.11820491153913572 0.27301245121244949 0.81482070155161768 0.48502499283556216 0.35464963769537577 0.3513258118597552 0.79754763363302494 0.58673084002848874 39.500000000000007 0.28664570213716112 9.5886492246338353 0.55291828678908572 2.5000000000000004 0.69174051897847788 4.6783358403417106 9.3503423672686363 0.29356372408845083 45.500000000000007 0.14292021348208958 0.79642784451124438
decision_type=2 2 2 2 2 2 2 2 2 2 2 2 2 2 2 2 2 2 2 2 2 2 2 2 2 2 2 2 2 2
left_child=4 23 3 20 -1 12 10 8 -6 22 -4 -12 16 15 -15 -9 17 21 -19 -8 -3 25 -10 -2 -18 26 -5 -20 -26 -30
right_child=1 2 6 5 7 -7 19 13 9 -11 11 -13 -14 14 -16 -17 24 18 27 -21 -22 -23 -24 -25 28 -27 -28 -29 29 -31
leaf_value=0.006996825262938159 0.0063032585885125685 0.015240209350656744 -0.032030796936261346 0.068801540192802199 0.040134255411728215 0.05660253491167283 -0.062792512709350115 -0.0093903322343256435 -0.018850419045785494 0.045642976622143047 0.03793590239907671 -0.004237645922751259 -0.015266630877606888 -0.020946255417455498 0.0014143116377005873 0.038995508939922964 -0.038958284528803427 -0.0017723184495665679 0.067187747063801151 0.0012697362966168071 -0.032945157193598078 0.076087514382838645 0.022500946941474594 -0.018977457679211315 0.038258741180529708 0.018561294236533896 0.01128771068798767 0.0084632001028930783 0.020710397116212399 -0.032617151288497792
leaf_weight=96.557181641459465 41.885375618934631 13.661939620971681 11.783658668398855 15.815587073564531 12.968850761651991 13.82743678987026 8.9449350535869616 22.65324929356575 39.722884148359299 7.1191437542438498 21.923678085207939 36.874077498912811 15.502139225602148 203.08418250083923 61.340477213263512 12.611565604805945 6.6584019511938086 36.62854491174221 10.750699564814569 7.388016775250434 14.359109088778494 9.141166687011717 11.910296395421026 58.797399535775185 14.62769655883312 35.301635295152664 6.9101886451244345 7.0896645337343207 22.108337879180908 13.333196789026259
leaf_count=440 187 62 56 67 54 59 47 104 197 32 98 164 71 1107 314 54 31 160 47 36 66 39 58 303 68 150 30 31 103 64
internal_value=-0.000129286 0.0064552 0.0111099 0.0162852 -0.00608546 0.0197575 -0.00292586 -0.00948651 0.00508405 -0.00265285 0.00422201 0.0114874 0.0171296 -0.0129735 -0.0157591 0.00791364 0.0199452 0.0265897 0.0131708 -0.0338147 -0.0094519 0.0374715 -0.00931184 -0.00846034 0.00569773 0.0313883 0.0513134 0.0438509 0.0116363 0.000648436
internal_weight=891.281 423.313 322.63 235.716 467.968 207.695 86.9144 371.411 71.7212 58.7523 70.5814 58.7978 193.867 299.689 264.425 35.2648 178.365 121.637 54.4689 16.333 28.021 67.1686 51.6332 100.683 56.7276 58.0274 22.7258 17.8404 50.0692 35.4415
internal_count=4299 1939 1449 1048 2360 920 401 1920 341 287 318 262 861 1579 1421 158 790 524 238 83 128 286 255 490 266 247 97 78 235 167
is_linear=0
shrinkage=0.05


Tree=25
num_leaves=31
num_cat=0
split_feature=5 2 1 2 2 12 6 12 14 7 12 10 1 0 8 3 12 0 7 7 9 10 11 6 11 0 3 10 2 0
split_gain=14.3383 12.867 9.65171 9.62752 8.5253 8.78742 7.907 8.59937 7.46201 7.82052 7.11195 7.08301 11.543 11.78 6.84919 6.65958 6.43659 6.05467 6.33451 6.91917 7.62819 6.04932 7.57398 5.95715 7.44122 8.82189 6.57331 5.80906 7.93083 7.13093
threshold=1.5000000000000002 0.28522299794020828 0.69297926871389437 0.06142507391320351 -0.021536607342151997 0.68363066232487191 0.18854547347521736 0.42945771443635489 1.0000000180025095e-35 0.15913567320885866 0.61394619064297162 0.55402021834878201 0.40614521874306647 28336.07740548535 0.59849178136729642 6.1608054589042895 0.843247627802442 32259.714712678371 0.60087108406546708 0.23561655427779152 0.6639854818112606 0.78952691926354501 0.59736376136077507 0.18445057599059342 0.4967474795812627 28450.46486316025 10.008284363317935 0.67279406150151322 0.063552817794590211 21663.667782810891
decision_type=2 2 2 2 2 2 2 2 2 2 2 2 2 2 2 2 2 2 2 2 2 2 2 2 2 2 2 2 2 2
left_child=1 2 4 -2 -1 11 16 15 10 -10 -9 -6 13 -13 -3 -8 27 18 19 -11 -21 22 -19 -7 -25 26 -26 28 -4 -29
right_child=3 14 6 -5 5 23 7 8 9 17 -12 12 -14 -15 -16 -17 -18 21 -20 20 -22 -23 -24 24 25 -27 -28 29 -30 -31
leaf_value=0.044330976200685615 0.050998177508680076 -0.0069384824781583187 0.038632524046652954 0.010513549567919145 0.032020318829883862 -0.028482415881643592 -0.02382403903098779 -0.05299882943519723 -0.038530110142359061 0.046906618075569756 -0.0061920451768382465 0.083490945199658828 0.0021088769238206142 -0.00041853145302895737 -0.029908006308725227 0.025139679203918561 -0.055710528670777498 -0.035667961645542666 0.053717711980108974 0.010332103384725976 -0.033004890344464917 -0.040794928355529142 0.021741307132788962 -0.039780738809209092 0.019283339476118998 0.04116698823783297 -0.028983989098864123 -0.036754298982869776 -0.0089630342190787724 -0.0069949844668384569
leaf_weight=14.895785734057425 17.221899777650833 78.787502735853195 11.536368250846861 99.690253734588623 33.738993108272552 25.55300809442997 8.1254636049270612 13.966229662299154 11.557103365659712 9.6740525662899 19.371994510293007 9.3182208091020602 141.18054606020451 7.5895220935344687 55.187735691666603 47.778501898050308 8.726107105612753 8.7678903788328189 8.2892042398452741 49.596468284726143 12.76827736198902 12.271211951971052 16.664479985833168 9.2231991738080961 13.1644454151392 14.683346569538115 15.195916622877119 34.446536168456078 36.268238082528114 48.433162719011307
leaf_count=62 73 405 53 445 140 118 39 72 62 50 101 39 628 32 335 218 48 46 39 249 68 65 83 42 59 64 68 182 176 259
internal_value=0.000152553 -0.00230451 0.000633447 0.0164772 0.00750814 0.00547398 -0.00482697 0.00110203 -0.00470393 0.000723439 -0.0258006 0.011223 0.00678446 0.0458258 -0.0164002 0.018023 -0.0141337 0.00456696 0.0123254 0.00756255 0.00145948 -0.0119625 0.00194928 -0.00869741 0.000975372 0.0097084 -0.00657903 -0.0113575 0.00252289 -0.0193636
internal_weight=893.672 776.76 642.784 116.912 284.543 269.647 358.241 218.831 162.927 129.589 33.3382 191.827 158.088 16.9077 133.975 55.904 139.41 118.032 80.328 72.0388 62.3647 37.7036 25.4324 77.8199 52.2669 43.0437 28.3604 130.684 47.8046 82.8797
internal_count=4320 3802 3062 518 1252 1190 1810 1092 835 662 173 839 699 71 740 257 718 600 406 367 317 194 129 351 233 191 127 670 229 441
is_linear=0
shrinkage=0.05


Tree=26
num_leaves=31
num_cat=0
split_feature=5 2 1 2 2 12 6 14 8 4 10 1 0 9 13 6 11 0 12 13 0 2 0 12 10 12 2 8 12 10
split_gain=12.9201 11.7216 8.73565 8.63326 7.66731 7.93772 7.06537 7.47322 6.38311 6.27124 6.266 9.35799 9.41959 5.80254 7.47611 5.75017 7.13848 7.18987 5.73954 5.76915 5.52947 6.81211 9.04317 7.85558 8.78741 7.08318 5.51539 5.25676 5.17594 8.20657
threshold=1.5000000000000002 0.28522299794020828 0.69471399397766997 0.06142507391320351 -0.021536607342151997 0.68363066232487191 0.18854547347521736 1.0000000180025095e-35 0.59849178136729642 0.47424210847492992 0.55065264276769754 0.40614521874306647 28336.07740548535 0.46681239303331545 34.500000000000007 0.18445057599059342 0.4967474795812627 28450.46486316025 0.843247627802442 49.500000000000007 47475.200828825669 0.077961982980398567 36853.613694768545 0.60952765018573918 0.75251559532639833 0.52997524391446549 0.031678240403985501 0.57730901661720468 0.52850626427080616 0.42272936412185863
decision_type=2 2 2 2 2 2 2 2 2 2 2 2 2 2 2 2 2 2 2 2 2 2 2 2 2 2 2 2 2 2
left_child=1 2 4 -2 27 10 18 -8 -3 -10 13 12 -12 -6 -15 -7 -17 -18 19 20 21 25 23 -23 -25 -4 -27 -1 -9 -30
right_child=3 8 6 -5 5 15 7 28 9 -11 11 -13 -14 14 -16 16 17 -19 -20 -21 -22 22 -24 24 -26 26 -28 -29 29 -31
leaf_value=0.071283919586279276 0.048218142270272768 -0.0066120496251534993 0.040654540303812249 0.0099633501617835546 0.056660394781648443 -0.027731958342747234 -0.018276818069941251 0.014572256395806137 -0.035889831364509898 0.01249321604458957 0.074023225645807531 0.0023219075974976904 -0.00039763556788091392 -0.019757984308661578 0.041312161272457078 -0.03868152234563061 -0.0050743315752742922 0.037705803434028587 -0.053920008259411026 -0.055761002486616168 -0.037292947534298314 -0.03258214747445299 0.033943751061450769 0.031904160983785596 -0.027835782487075418 0.013034512364944692 -0.045301238849100506 0.011991343745006022 0.054632096074045171 -0.0064044579099345805
leaf_weight=7.5547211319208127 17.301894143223763 78.549575701355934 14.452989324927328 99.929290995001793 12.870694205164908 25.543686881661415 40.951589107513428 82.485570922493935 46.433653250336647 7.8262361884117118 9.6694240868091601 143.00185656547546 7.5889592319726935 9.1422326415777224 11.091012462973593 9.2652198672294599 28.526930794119835 14.978336840867994 8.2599454224109632 6.7992083579301825 14.626954615116118 41.378891795873642 9.0816717445850355 12.754584565758707 11.897663995623587 12.328632384538652 6.0352735668420783 7.3995168805122375 5.8741933703422538 88.119602471590042
leaf_count=31 73 405 65 445 53 119 209 390 295 40 40 636 32 38 46 43 128 65 47 35 79 211 47 67 69 62 32 31 26 461
internal_value=0.000139825 -0.00220172 0.000596691 0.0156093 0.00708959 0.005171 -0.00464509 0.000966272 -0.0157225 -0.0289112 0.01061 0.00651928 0.0412984 0.0304139 0.0137181 -0.00825846 0.00116774 0.00965435 -0.013511 -0.0109307 -0.00844355 -0.0045338 -0.0128367 -0.0192708 0.00307248 0.0144704 -0.00613746 0.0419453 0.00543158 -0.00258995
internal_weight=891.72 774.489 641.679 117.231 286.633 271.678 355.047 217.431 132.809 54.2599 193.364 160.26 17.2584 33.1039 20.2332 78.3142 52.7705 43.5053 137.616 129.356 122.557 107.93 75.1128 66.0311 24.6522 32.8169 18.3639 14.9542 176.479 93.9938
internal_count=4320 3802 3062 518 1262 1200 1800 1086 740 335 845 708 72 137 84 355 236 193 714 667 632 553 394 347 136 159 94 62 877 487
is_linear=0
shrinkage=0.05


Tree=27
num_leaves=31
num_cat=0
split_feature=8 4 5 2 4 2 5 11 9 4 3 3 3 2 7 10 12 12 9 3 1 0 12 7 9 12 11 12 1 12
split_gain=11.8641 11.7715 9.97346 12.4104 8.41635 9.30278 7.1072 6.19531 7.38446 8.74114 6.17349 7.24178 8.80033 6.35958 7.7303 6.10736 5.63012 5.45391 6.82065 10.6228 7.69138 10.8 6.68212 9.32975 5.88024 5.76223 5.6662 5.29964 5.42227 5.28697
threshold=0.62143384300521665 0.14284998986468581 1.0000000180025095e-35 0.38112083817757897 0.60959414985263838 0.29284640695674646 2.5000000000000004 0.68615470806636025 0.47813815168624496 0.090368001068296011 13.474584247357546 8.678648939680464 2.9496693653756312 0.099044386425556713 0.38425256422547188 0.42710714222095153 0.43113739378268995 0.75727215833054473 0.58998624421619239 15.205941418877865 0.61722166525589495 19056.484174449066 0.65549533989904407 0.40436604742648785 0.46498529849295328 0.47196538454269404 0.6462968996693591 0.57646188446372226 0.77999575409154709 0.42160901093070519
decision_type=2 2 2 2 2 2 2 2 2 2 2 2 2 2 2 2 2 2 2 2 2 2 2 2 2 2 2 2 2 2
left_child=1 7 -3 6 5 15 10 -1 9 -9 11 12 -4 -12 -15 -2 -13 18 22 20 26 -22 25 -24 -19 29 -20 -23 -29 -17
right_child=4 2 3 -5 -6 -7 -8 8 -10 -11 13 16 -14 14 -16 17 -18 24 19 -21 21 27 23 -25 -26 -27 -28 28 -30 -31
leaf_value=-0.022067341007246662 0.023151692248431451 0.0016402133433388482 -0.020337332855871089 -0.044447702504473503 0.033035775293954545 -0.029442917800418168 0.060206655569033755 0.055843813870214726 -0.016329256479471147 -0.0033911380838757064 0.071111241181135418 0.02724750957628665 0.033578864413743796 0.047291180864962978 -0.01251139937429856 -0.011914114721146798 -0.0041046960012743987 -0.0010973659743777095 0.053782906718364991 0.064319416396118406 -0.041121662036744527 0.022399109889020819 0.032540060580354843 -0.023450688192113961 -0.04077066775879129 -0.025513908931187865 0.0020802708406354353 0.012902163114066873 -0.049651015191077855 0.024611804454299634
leaf_weight=53.617910459637642 17.820786505937576 238.1826408803463 8.8498153984546644 7.8954321146011344 12.662531614303587 45.798617273569107 10.165019169449804 10.674405217170717 26.590961143374443 14.951728895306585 9.6021286249160784 18.523249238729477 52.266663566231728 12.99524646997452 9.2502728104591352 45.875201091170311 63.092764511704445 15.844969034194945 10.31168942153454 7.4706673920154563 17.097347766160965 22.03953829407692 18.816401183605198 12.305868312716482 22.749566495418549 66.839894711971283 10.901330322027205 7.2372721582651121 6.6453766971826553 12.635849863290785
leaf_count=266 79 1159 39 41 56 289 42 51 131 70 40 79 226 56 41 211 277 84 45 35 89 108 92 62 121 347 48 37 39 60
internal_value=0.000128483 0.00481158 0.00848189 0.016941 -0.00699006 -0.00847902 0.0195646 -0.0101292 0.00212929 0.0212828 0.0171981 0.0127568 0.0257717 0.0371031 0.0224237 -0.00521988 0.00301088 -0.00704667 -0.00422129 0.00748809 0.00176866 -0.00841159 -0.0103354 0.0104011 -0.0244828 -0.0154839 0.027213 0.00715694 -0.0170409 -0.0040261
internal_weight=889.711 536.658 430.823 192.641 353.053 340.39 184.745 105.835 52.2171 25.6261 174.58 142.732 61.1165 31.8476 22.2455 294.592 81.616 276.771 238.176 81.7032 74.2326 53.0195 156.473 31.1223 38.5945 125.351 21.213 35.9222 13.8826 58.5111
internal_count=4320 2518 2000 841 1802 1746 800 518 252 121 758 621 265 137 97 1457 356 1378 1173 401 366 273 772 154 205 618 93 184 76 271
is_linear=0
shrinkage=0.05


Tree=28
num_leaves=31
num_cat=0
split_feature=5 4 2 10 12 1 2 8 13 2 0 9 0 6 3 10 2 13 13 2 10 6 3 8 0 4 12 7 6 9
split_gain=11.1876 10.3534 10.7027 9.62042 8.96881 8.05534 7.60213 7.17562 6.39315 7.27046 6.24524 8.06273 6.39169 7.00092 5.69178 7.74032 6.33917 6.26712 5.73472 5.55023 5.54379 7.33511 7.58512 6.72356 5.71616 6.13865 5.36342 9.34782 5.49868 5.70726
threshold=1.5000000000000002 0.49716549027836376 0.28522299794020828 0.57227417133808489 0.48726052792690772 0.43119240432031997 0.06142507391320351 0.69245415017999901 48.500000000000007 0.35838027531957489 22888.63425382214 0.67197807988020897 42700.524815042038 0.19655256156241371 6.6488404156964345 0.74785217111318325 0.10586425712563756 30.500000000000004 38.500000000000007 -0.052618322671497998 0.78276396847143614 0.16727604816409844 14.641156935603815 0.54043832796966351 28450.46486316025 0.24813766842737231 0.60611083087486339 0.32068304864780889 0.26340730403855234 0.46851031975310792
decision_type=2 2 2 2 2 2 2 2 2 2 2 2 2 2 2 2 2 2 2 2 2 2 2 2 2 2 2 2 2 2
left_child=1 2 3 -1 14 -6 -2 8 9 -4 -3 12 -12 -14 18 16 -16 -18 -5 -7 23 -22 24 26 -23 -26 27 -21 29 -28
right_child=6 10 7 4 5 19 -8 -9 -10 -11 11 -13 13 -15 15 -17 17 -19 -20 20 21 22 -24 -25 25 -27 28 -29 -30 -31
leaf_value=0.011517341703518319 0.045096392508321079 0.027438213676587043 -0.005035158168113822 -0.030825960465836501 0.021176213035214008 0.0239245700764226 0.0092076742480732485 -0.04202017546968511 0.035616670383405977 -0.036747280677007034 -0.021610282609993273 0.042740945550286215 -0.020749807477482941 0.047831996038176519 0.020434416121645205 0.019853825064667603 0.0090887438411734241 -0.034003016234408559 0.019520580805153148 -0.055957696844924479 -0.039205070889995829 -0.03038674450866188 0.025190912967177743 -0.01691716306714414 -0.024161293526064987 0.024579065408789333 -0.026505655991891988 0.0091852097923035766 0.036836141462760638 0.020946853898826862
leaf_weight=114.30126078426838 17.312120199203491 43.025785818696022 55.158894777297974 18.920572236180309 19.518255278468132 10.306967228651045 99.925329178571701 24.829229444265366 6.6303525716066352 26.882397271692753 28.074577152729034 9.808331370353697 6.4809567481279364 8.7385325431823713 16.357561126351357 74.415379896759987 13.835022345185278 21.627888113260269 8.0678152740001661 8.6249942332506198 39.162361189723015 42.2546027302742 11.292029976844786 77.893156126141548 13.33088640868664 12.533836275339125 11.127974450588228 15.233543604612349 17.459787413477898 14.716214776039122
leaf_count=504 73 192 301 92 83 47 445 163 36 154 129 45 31 39 71 344 67 103 37 43 216 216 57 417 71 62 56 73 81 72
internal_value=0.000117502 -0.0020717 -0.00425963 -0.00142657 -0.0047388 -0.00985837 0.0145073 -0.0182621 -0.0116095 -0.0154262 0.0132799 0.00180822 -0.00746515 0.0186276 0.00506617 0.00952199 -0.00531476 -0.0171918 -0.0157755 -0.0120696 -0.0134769 -0.0214964 -0.0127632 -0.00692139 -0.0190548 -0.000542108 0.00467141 -0.0143643 0.0151592 0.000514783
internal_weight=887.847 770.609 674.481 560.98 446.679 293.455 117.237 113.501 88.6716 82.0413 96.1282 53.1024 43.2941 15.2195 153.224 126.236 51.8205 35.4629 26.9884 273.936 263.629 118.574 79.4114 145.056 68.1193 25.8647 67.1625 23.8585 43.304 25.8442
internal_count=4320 3802 3366 2712 2208 1494 518 654 491 455 436 244 199 70 714 585 241 170 129 1411 1364 622 406 742 349 133 325 116 209 128
is_linear=0
shrinkage=0.05


Tree=29
num_leaves=31
num_cat=0
